MLJBase.Machine{MLJTuning.DeterministicTunedModel{MLJTuning.Grid,LightGBM.MLJInterface.LGBMRegressor,ComputationalResources.CPU1{Nothing},ComputationalResources.CPU1{Nothing}}}(MLJTuning.DeterministicTunedModel{MLJTuning.Grid,LightGBM.MLJInterface.LGBMRegressor,ComputationalResources.CPU1{Nothing},ComputationalResources.CPU1{Nothing}}(LightGBM.MLJInterface.LGBMRegressor(10, 0.1, 31, -1, "serial", -1.0, 20, 0.001, 0.0, 0.0, 0.0, 1.0, 2, 1.0, 0, 3, 0, 255, "", "regression", Int64[], 1, true, false, ["l2"], 1, false, [1, 2, 3, 4, 5], 1, 0, 12400, 120, "", false, "cpu"), MLJTuning.Grid(nothing, 5, true, Random._GLOBAL_RNG()), MLJBase.CV(6, true, StableRNGs.LehmerRNG(0x8956fc24be10a229398d23f5e48841c3)), MLJBase.RMS(), nothing, MLJModelInterface.predict, MLJBase.NumericRange{T,MLJBase.Bounded,Symbol} where T[MLJBase.NumericRange{Int64,MLJBase.Bounded,Symbol}(:num_iterations, 50, 100, 75.0, 25.0, :linear), MLJBase.NumericRange{Int64,MLJBase.Bounded,Symbol}(:min_data_in_leaf, 2, 10, 6.0, 4.0, :linear), MLJBase.NumericRange{Float64,MLJBase.Bounded,Symbol}(:learning_rate, 0.1, 1.0, 0.55, 0.45, :linear)], true, 1, nothing, ComputationalResources.CPU1{Nothing}(nothing), ComputationalResources.CPU1{Nothing}(nothing), true), MLJTuning.DeterministicTunedModel{MLJTuning.Grid,LightGBM.MLJInterface.LGBMRegressor,ComputationalResources.CPU1{Nothing},ComputationalResources.CPU1{Nothing}}(LightGBM.MLJInterface.LGBMRegressor(10, 0.1, 31, -1, "serial", -1.0, 20, 0.001, 0.0, 0.0, 0.0, 1.0, 2, 1.0, 0, 3, 0, 255, "", "regression", Int64[], 1, true, false, ["l2"], 1, false, [1, 2, 3, 4, 5], 1, 0, 12400, 120, "", false, "cpu"), MLJTuning.Grid(nothing, 5, true, Random._GLOBAL_RNG()), MLJBase.CV(6, true, StableRNGs.LehmerRNG(0x8956fc24be10a229398d23f5e48841c3)), MLJBase.RMS(), nothing, MLJModelInterface.predict, MLJBase.NumericRange{T,MLJBase.Bounded,Symbol} where T[MLJBase.NumericRange{Int64,MLJBase.Bounded,Symbol}(:num_iterations, 50, 100, 75.0, 25.0, :linear), MLJBase.NumericRange{Int64,MLJBase.Bounded,Symbol}(:min_data_in_leaf, 2, 10, 6.0, 4.0, :linear), MLJBase.NumericRange{Float64,MLJBase.Bounded,Symbol}(:learning_rate, 0.1, 1.0, 0.55, 0.45, :linear)], true, 1, nothing, ComputationalResources.CPU1{Nothing}(nothing), ComputationalResources.CPU1{Nothing}(nothing), true), MLJBase.Machine{LightGBM.MLJInterface.LGBMRegressor}(LightGBM.MLJInterface.LGBMRegressor(88, 0.55, 31, -1, "serial", -1.0, 10, 0.001, 0.0, 0.0, 0.0, 1.0, 2, 1.0, 0, 3, 0, 255, "", "regression", Int64[], 1, true, false, ["l2"], 1, false, [1, 2, 3, 4, 5], 1, 0, 12400, 120, "", false, "cpu"), LightGBM.MLJInterface.LGBMRegressor(88, 0.55, 31, -1, "serial", -1.0, 10, 0.001, 0.0, 0.0, 0.0, 1.0, 2, 1.0, 0, 3, 0, 255, "", "regression", Int64[], 1, true, false, ["l2"], 1, false, [1, 2, 3, 4, 5], 1, 0, 12400, 120, "", false, "cpu"), (LightGBM.LGBMRegression(LightGBM.Booster(Ptr{Nothing} @0x00007fddf41e8c00, LightGBM.Dataset[LightGBM.Dataset(Ptr{Nothing} @0x00007fddd84b7e50)]), "tree\nversion=v3\nnum_class=1\nnum_tree_per_iteration=1\nlabel_index=0\nmax_feature_idx=11\nobjective=regression\nfeature_names=Column_0 Column_1 Column_2 Column_3 Column_4 Column_5 Column_6 Column_7 Column_8 Column_9 Column_10 Column_11\nfeature_infos=[0.0063200000000000001:88.976200000000006] [0:95] [0.46000000000000002:27.739999999999998] [0.38500000000000001:0.871] [3.5609999999999999:8.7799999999999994] [2.8999999999999999:100] [1.137:12.1265] [1:24] [187:711] [12.6:22] [2.52:396.89999999999998] [1.73:37.969999999999999]\ntree_sizes=2773 2625 2633 3000 2753 2769 2936 2864 2771 2914 2880 2941 2793 2512 3067 3000 2835 2723 2711 2589 2969 2968 2922 2744 2753 2668 2983 2871 2974 3126 3106 2811 2970 2795 3017 2931 3016 2775 2861 3021 3145 2719 3037 2894 3130 3050 3242 2803 2708 3055 2970 2924 2946 2932 3073 2597 3083 2938 2981 2936 2797 2965 3036 2930 3034 3104 3056 2823 3334 3011 3172 3166 3100 2967 3007 3094 3094 2991 2851 2983 3009 2902 3147 2873 3110 2774 3054 3247\n\nTree=0\nnum_leaves=29\nnum_cat=0\nsplit_feature=4 11 4 11 6 11 9 4 0 8 11 0 7 11 3 4 4 9 9 0 0 10 10 9 5 6 11 5\nsplit_gain=16038.2 5331.96 1948.8 1042.31 754.928 461.266 374.71 253.972 238.452 221.684 208.197 170.627 108.743 101.695 112.673 66.6413 47.6832 54.1668 46.7813 38.0014 37.143 37.0175 29.6478 27.4722 25.9706 13.1424 9.11429 6.498\nthreshold=6.9715000000000007 14.4 7.4160000000000013 5.3600000000000003 2.0493000000000006 10.145000000000001 17.150000000000002 6.1410000000000009 0.62547500000000011 453.00000000000006 5.495000000000001 0.36017000000000005 4.5000000000000009 21.390000000000004 0.67500000000000016 6.6045000000000007 5.8455000000000004 18.650000000000002 19.400000000000002 0.12779500000000002 0.052450000000000004 367.19500000000005 388.02500000000003 18.650000000000002 85.250000000000014 3.2674500000000006 18.095000000000002 96.800000000000026\ndecision_type=2 2 2 2 2 2 2 2 2 2 2 2 2 2 2 2 2 2 2 2 2 2 2 2 2 2 2 2\nleft_child=1 3 10 12 9 7 -4 19 24 -3 -2 15 -1 -11 -15 20 18 25 -7 -5 -9 26 -19 -22 -6 -18 -10 -16\nright_child=2 4 6 5 8 16 -8 11 21 13 -12 -13 -14 14 27 -17 17 22 -20 -21 23 -23 -24 -25 -26 -27 -28 -29\nleaf_value=25.180415339384879 29.426415676935918 18.75022780037364 36.367415316764919 21.448665352620836 21.715415190224256 20.155107592179018 32.197415303055848 22.461581998183735 18.662415309612364 17.432137573955199 26.352832051728573 26.115415354137031 27.636165479311753 17.202415378753749 15.324415348236172 24.855915460352506 21.891415243659821 20.562415326003638 21.737415298734511 22.815415296767561 24.230748773852394 19.562415476505365 21.721238978656771 23.027415252093878 20.554915362426332 22.705415347580519 17.936915387575237 14.697415369217007\nleaf_weight=10.000000000000002 15.000000000000002 15.999999999999998 16.000000000000004 16.000000000000004 10.000000000000002 13.000000000000002 10.999999999999998 11.999999999999998 11.000000000000002 18 11.999999999999998 9.9999999999999982 11.999999999999998 11.000000000000002 10 9.9999999999999982 10.000000000000002 11.000000000000002 9.9999999999999982 9.9999999999999982 12.000000000000002 10.999999999999998 17 10.999999999999998 13.999999999999998 14.999999999999998 9.9999999999999982 10\nleaf_count=10 15 16 16 16 10 13 11 12 11 18 12 10 12 11 10 10 10 11 10 10 12 11 17 11 14 15 10 10\ninternal_value=0 -2.8557 15.865 0.610461 -7.98333 -0.292841 21.8724 1.36747 -5.29227 -10.3018 9.8576 2.58494 7.05675 -11.3571 -12.4548 1.75463 -2.06238 -1.54059 -3.26479 -1.20793 1.10416 -7.07933 -2.49584 1.84826 -2.90953 -0.470701 -7.85775 -13.8687\ninternal_weight=0 300 54 179 121 157 27 81 56 65 27 55 22 49 31 45 76 53 23 26 35 32 28 23 24 25 21 20\ninternal_count=354 300 54 179 121 157 27 81 56 65 27 55 22 49 31 45 76 53 23 26 35 32 28 23 24 25 21 20\nshrinkage=1\n\n\nTree=1\nnum_leaves=27\nnum_cat=0\nsplit_feature=11 11 4 11 5 8 3 10 6 4 8 2 3 4 3 4 7 3 2 10 10 5 0 0 10 10\nsplit_gain=3390.97 1427.04 534.773 284.968 275.685 246.422 113.992 99.2088 95.3675 78.2148 51.1913 50.156 47.881 40.0996 31.677 31.3292 53.3928 30.1119 18.1261 20.7316 16.9855 22.5874 12.51 8.00354 5.95141 2.95741\nthreshold=4.4750000000000005 11.675000000000002 6.9450000000000012 18.335000000000004 52.850000000000001 267.00000000000006 0.6070000000000001 120.63500000000001 2.6191000000000004 6.6045000000000007 280.00000000000006 9.1250000000000018 0.69650000000000001 5.963000000000001 0.67500000000000016 6.2695000000000007 4.5000000000000009 0.51250000000000007 5.7500000000000009 390.93000000000006 342.44000000000005 73.15000000000002 0.09796500000000001 9.5546700000000016 392.04500000000007 393.54000000000002\ndecision_type=2 2 2 2 2 2 2 2 2 2 2 2 2 2 2 2 2 2 2 2 2 2 2 2 2 2\nleft_child=4 2 8 7 -1 -4 11 -3 -2 13 -9 -5 14 -10 -8 16 24 18 19 -15 -18 -22 -11 -14 -12 -20\nright_child=1 3 5 6 -6 -7 12 10 9 22 15 -13 23 17 -16 -17 20 -19 25 -21 21 -23 -24 -25 -26 -27\nleaf_value=4.1912202737833324 1.4327248867601157 -2.6892597369849685 4.4525553056171958 -2.3274709182977671 7.5585246562957771 1.2929018124938012 -2.9032660080836368 0.10323727439556804 -0.94806413219163299 1.3736578986048695 -1.8497535884380334 -0.62555681178346279 -2.0538176953792564 -0.7803622327744959 -4.1424693862597142 -1.7251040438190104 0.13318894408643245 -0.72933165212472284 0.69902771078050119 0.20733044379287299 -0.14876448641029685 -1.1118391072048861 0.54071952650944399 -2.7172895908355716 -1.2634996145963671 0.31288963893894106\nleaf_weight=19.000000000000004 15.999999999999998 9.9999999999999982 14.000000000000002 10.000000000000002 11.999999999999998 15.999999999999998 13 13.999999999999998 19 10.000000000000002 11.000000000000002 10.999999999999998 11.000000000000002 10.000000000000002 12 15.999999999999998 9.9999999999999982 14.999999999999998 12.000000000000002 18 13.000000000000002 17 11.999999999999998 10.999999999999998 9.9999999999999982 11.999999999999998\nleaf_count=19 16 10 14 10 12 16 13 14 19 10 11 11 11 10 12 16 10 15 12 18 13 17 12 11 10 12\ninternal_value=0 -0.958826 1.24308 -2.9653 9.99035 5.03165 -4.54786 -1.89981 0.326495 -0.0110546 -1.57127 -2.61089 -5.41332 -0.441477 -6.36015 -1.89108 -1.5644 -0.0778464 0.282214 -0.264394 -0.886514 -1.26274 1.67151 -4.33737 -2.85561 0.919925\ninternal_weight=0 323 154 169 31 30 68 101 124 108 91 21 47 86 25 77 61 67 52 28 40 30 22 22 21 24\ninternal_count=354 323 154 169 31 30 68 101 124 108 91 21 47 86 25 77 61 67 52 28 40 30 22 22 21 24\nshrinkage=0.55\n\n\nTree=2\nnum_leaves=27\nnum_cat=0\nsplit_feature=11 11 3 0 3 8 11 3 4 9 6 9 5 6 6 10 5 5 5 11 0 10 3 5 6 5\nsplit_gain=686.671 302.142 134.832 115.264 105.911 73.6818 68.3569 49.9123 57.1572 32.8903 29.2008 25.6567 20.388 19.3131 26.5506 19.7722 17.4837 14.2289 13.8894 11.979 12.2959 10.6879 8.50859 7.20117 3.49985 2.98628\nthreshold=4.4750000000000005 10.145000000000001 0.57400000000000007 19.210050000000006 0.47800000000000004 222.50000000000003 15.620000000000003 0.51250000000000007 6.543000000000001 17.500000000000004 3.7156500000000006 19.900000000000002 93.950000000000017 1.5846000000000002 1.9372500000000001 372.28500000000003 59.550000000000004 69.550000000000011 40.20000000000001 12.08 1.7144600000000003 383.67000000000007 0.61150000000000004 46.95000000000001 5.408500000000001 93.350000000000009\ndecision_type=2 2 2 2 2 2 2 2 2 2 2 2 2 2 2 2 2 2 2 2 2 2 2 2 2 2\nleft_child=4 2 5 6 -1 -2 10 8 21 18 17 12 -8 -13 15 -15 -12 -3 -10 -19 -21 -7 -16 24 -23 -24\nright_child=1 3 -4 -5 -6 7 11 -9 9 -11 16 13 -14 14 22 -17 -18 19 -20 20 -22 23 25 -25 -26 -27\nleaf_value=1.6086645155731172 1.5913912832736969 0.51258494550628331 2.1124307054739733 -2.3096047505736355 3.6688465649118793 -0.61037687659263618 0.0070794970293839767 -0.7376697391426813 1.6748219072818753 0.10690198192993801 -0.26259923285167469 -0.34600783944129943 -0.95474490953298918 -2.215618185997009 -1.1940619307135543 -1.1869335966614578 -1.0569213541348776 -0.48481154205167998 0.77921411067247393 -0.26930276222813582 0.48715674508936135 0.43598204143345343 -0.86922996044158907 -0.35009619891643529 0.03016487355861399 -0.45394948124885565\nleaf_weight=18.000000000000004 10.999999999999998 13.999999999999998 12.999999999999998 11.999999999999998 12.999999999999998 9.9999999999999982 15.000000000000002 18 11.000000000000002 11.999999999999998 19 9.9999999999999982 11.999999999999998 10.000000000000002 14.999999999999998 12.999999999999998 14.999999999999998 17 9.9999999999999982 13.000000000000002 12.999999999999998 10.000000000000002 10.000000000000002 10.999999999999998 18 10.999999999999998\nleaf_count=18 11 14 13 12 13 10 15 18 11 12 19 10 12 10 15 13 15 17 10 13 13 10 10 11 18 11\ninternal_value=0 -0.431472 0.793766 -1.19494 4.49566 0.436908 -1.00214 0.166689 0.497693 1.51504 -0.381153 -1.59079 -0.76436 -1.91418 -2.13199 -2.97125 -1.11461 0.0563475 2.26971 -0.22874 0.198049 -0.18746 -1.59579 0.0490317 0.318363 -1.18491\ninternal_weight=0 323 124 199 31 111 187 100 82 33 91 96 27 69 59 23 34 57 21 43 26 49 36 39 28 21\ninternal_count=354 323 124 199 31 111 187 100 82 33 91 96 27 69 59 23 34 57 21 43 26 49 36 39 28 21\nshrinkage=0.55\n\n\nTree=3\nnum_leaves=30\nnum_cat=0\nsplit_feature=4 5 6 6 8 9 4 10 5 1 11 4 0 10 6 1 6 10 2 0 0 11 0 4 6 6 3 6 3\nsplit_gain=158.723 126.799 109.751 53.5525 48.8282 31.2585 24.721 24.0466 21.8716 16.8121 16.7853 17.3053 16.2891 22.7841 15.932 13.8582 12.0896 11.9352 17.5309 11.1581 9.81035 8.28968 6.48282 6.29531 5.63078 5.41081 4.02298 6.38934 3.56966\nthreshold=7.6275000000000004 75.500000000000014 1.3989500000000004 1.8687500000000001 219.00000000000003 17.700000000000006 6.6385000000000014 392.79000000000002 59.550000000000004 15.000000000000002 8.0750000000000011 5.7440000000000007 1.5076700000000003 384.75500000000005 1.6283000000000001 48.750000000000007 7.891350000000001 329.75000000000006 14.480000000000002 0.29025000000000006 0.13570500000000002 10.595000000000002 0.42708000000000007 6.1635000000000009 2.5261500000000008 2.2920000000000003 0.54100000000000015 3.8973000000000004 0.48850000000000005\ndecision_type=2 2 2 2 2 2 2 2 2 2 2 2 2 2 2 2 2 2 2 2 2 2 2 2 2 2 2 2 2\nleft_child=2 -2 -1 12 -5 6 7 21 16 -9 -10 -12 -4 14 -14 22 19 25 26 20 23 -6 -8 -7 -20 -13 27 -19 -22\nright_child=1 -3 3 4 5 8 15 9 10 -11 11 17 13 -15 -16 -17 -18 18 24 -21 28 -23 -24 -25 -26 -27 -28 -29 -30\nleaf_value=1.540591284322242 2.7551283448934552 0.049090079069137572 -1.2676322381943466 1.0275681718252601 -0.83783907815813996 -0.28917496575353041 1.0715798807019987 0.79880874603986718 -1.0657325693964959 -0.10981294496783189 -0.86303174753983825 -0.76502304671864407 0.33615286052227011 -0.96387709983132996 -0.62305068408953967 0.018161545097827914 -0.49798793233931071 0.15780603025108569 0.049338578277577941 -0.39203466400504111 0.283949698624201 -0.14593675721436741 0.4719748262042413 0.2378116362495348 0.60815314903855333 -0.26172426057358583 -0.53627064795543755 -0.43746032514609401 0.74866973548196258\nleaf_weight=11.999999999999998 11.000000000000002 9.9999999999999982 10.999999999999998 11.999999999999998 11.000000000000002 12.000000000000002 12.000000000000002 11.000000000000002 9.9999999999999982 13.999999999999998 14.999999999999998 14.000000000000002 11.000000000000002 18 9.9999999999999982 9.9999999999999982 11.999999999999998 10.000000000000002 12.000000000000002 10.999999999999998 10.000000000000002 9.9999999999999982 9.9999999999999982 15.999999999999998 9.9999999999999982 11.999999999999998 14.999999999999998 11.999999999999998 9.9999999999999982\nleaf_count=12 11 10 11 12 11 12 12 11 10 14 15 14 11 18 10 10 12 10 12 11 10 10 10 16 10 12 15 12 10\ninternal_value=0 2.66643 -0.168154 -0.279153 -0.103709 -0.195077 0.334131 -0.135418 -0.423133 0.527237 -0.702409 -0.57888 -1.23006 -0.926928 -0.219292 1.00911 0.00954787 -0.404127 -0.155375 0.195646 0.403829 -0.924294 1.45279 0.0217459 0.551537 -0.968602 -0.575701 -0.303427 0.938745\ninternal_weight=0 21 333 321 271 259 78 46 181 25 110 100 50 39 21 32 71 85 59 59 48 21 22 28 22 26 37 22 20\ninternal_count=354 21 333 321 271 259 78 46 181 25 110 100 50 39 21 32 71 85 59 59 48 21 22 28 22 26 37 22 20\nshrinkage=0.55\n\n\nTree=4\nnum_leaves=28\nnum_cat=0\nsplit_feature=3 3 4 4 6 4 8 5 11 7 2 8 6 0 3 7 4 6 6 0 0 5 10 5 10 5 0\nsplit_gain=100.413 213.725 46.6536 42.1449 18.5631 10.305 14.7947 10.572 16.7915 14.09 13.9479 10.3717 9.4532 8.59145 10.0019 5.49349 6.28292 5.16855 7.20809 10.6701 8.46067 3.52716 3.4001 2.96071 6.56331 3.51421 0.975317\nthreshold=0.66350000000000009 0.62750000000000006 6.5025000000000004 7.7280000000000006 1.5145000000000002 5.9230000000000009 219.00000000000003 40.20000000000001 5.0700000000000012 3.5000000000000004 6.1450000000000005 306.00000000000006 6.3280500000000011 12.938700000000003 0.71550000000000014 4.5000000000000009 5.7200000000000015 2.2920000000000003 3.2986000000000004 0.18029000000000003 0.39468500000000006 71.300000000000011 390.93000000000006 36.70000000000001 376.65000000000003 72.200000000000017 0.069620000000000015\ndecision_type=2 2 2 2 2 2 2 2 2 2 2 2 2 2 2 2 2 2 2 2 2 2 2 2 2 2 2\nleft_child=1 3 4 5 -2 15 -7 8 12 -9 26 22 -8 14 -6 23 -17 -12 20 -20 -19 -21 -10 -1 -25 -26 -11\nright_child=2 -3 -4 -5 13 6 7 9 11 10 17 -13 -14 -15 -16 16 -18 18 19 21 -22 -23 -24 24 25 -27 -28\nleaf_value=-0.060217265710234648 -1.0554451726377012 2.2418424045001828 -1.5265291104021554 0.93352093418439241 -0.38728240391032565 0.70251214474439627 0.15345420204102989 -0.53029732798847062 -0.081230591384928608 -0.28822611182928082 -0.15214862455096509 0.71857807714906008 -0.5854113876819611 -0.63475027944271767 0.19252499068776768 0.31596724390983572 -0.23128554577628774 0.14070352528776439 0.50550820406526331 0.086305289119482015 0.80308279857039455 -0.33539105832576754 0.35300902657133215 -0.74723360463976862 -0.45877045154571522 -0.0082755446434021 -0.53113896206021316\nleaf_weight=9.9999999999999982 9.9999999999999982 13.999999999999998 12.999999999999998 14.999999999999998 18 9.9999999999999982 11.000000000000002 18 10.000000000000002 10.000000000000002 18 18 9.9999999999999982 11.999999999999998 18 11.000000000000002 14.999999999999998 14.000000000000002 9.9999999999999982 10.000000000000002 9.9999999999999982 14.999999999999998 11.999999999999998 10.999999999999998 10.000000000000002 10.999999999999998 9.9999999999999982\nleaf_count=10 10 14 13 15 18 10 11 18 10 10 18 18 10 12 18 11 15 14 10 10 10 15 12 11 10 11 10\ninternal_value=0 0.266765 -1.0633 0.0685108 -0.679533 -0.0276782 0.0941103 0.0268839 0.363401 -0.151616 -0.000831857 0.743555 -0.360703 -0.421312 -0.177052 -0.360805 0.00044451 0.192427 0.33553 0.0460919 0.757627 -0.303114 0.282959 -0.584436 -0.732858 -0.405085 -0.744877\ninternal_weight=0 283 71 269 58 254 186 176 61 115 97 40 21 48 36 68 26 77 59 35 24 25 22 42 32 21 20\ninternal_count=354 283 71 269 58 254 186 176 61 115 97 40 21 48 36 68 26 77 59 35 24 25 22 42 32 21 20\nshrinkage=0.55\n\n\nTree=5\nnum_leaves=28\nnum_cat=0\nsplit_feature=0 6 6 2 4 9 2 0 4 5 11 4 5 11 9 10 11 8 10 10 10 11 6 2 5 8 4\nsplit_gain=25.5553 79.7192 19.7949 16.4019 30.5639 17.3597 14.9317 14.97 9.9187 8.84092 5.78783 6.87323 7.32178 10.291 6.30158 6.08853 4.3831 4.25835 4.22176 4.656 3.13107 2.92343 3.15958 3.33333 2.53596 1.29411 0.941748\nthreshold=11.999650000000001 1.4577500000000003 1.5145000000000002 4.8950000000000005 7.8110000000000008 15.050000000000002 2.2100000000000004 0.059135000000000007 7.4795000000000007 95.350000000000009 5.2000000000000011 6.315500000000001 97.250000000000014 21.080000000000002 20.950000000000003 350.55000000000001 7.5500000000000007 312.00000000000006 388.29500000000007 393.68500000000006 244.41500000000005 7.410000000000001 2.2571000000000003 9.9550000000000018 49.150000000000006 302.00000000000006 6.0530000000000008\ndecision_type=2 2 2 2 2 2 2 2 2 2 2 2 2 2 2 2 2 2 2 2 2 2 2 2 2 2 2\nleft_child=1 -1 -2 4 5 -3 -7 17 10 -4 -5 12 13 14 15 -12 -13 -8 20 -20 -18 -17 -23 24 -24 -26 -25\nright_child=2 3 9 8 -6 6 7 -9 -10 -11 11 16 -14 -15 -16 21 18 -19 19 -21 -22 22 23 26 25 -27 -28\nleaf_value=1.5737162730842831 -1.1174597738683221 -0.49074809581686102 -0.5354044453054666 -0.44232951626181605 1.1107019042968751 -0.18452485093944954 0.34140864536043053 0.8400932965070631 -0.61314636155962943 0.19594747194088993 -0.48264882245411478 -0.13851159907644617 -0.45121147760655733 0.40731734163486044 0.2121937778312713 0.17664440110325816 0.14045051118979848 -0.13598412074148655 -0.26064021047204727 0.22385959424078467 0.52331146353057456 -0.42779340215958661 -0.021258576748454397 -0.043278467841446393 -0.41714853976781541 -0.17173923766956881 0.17951735245684786\nleaf_weight=9.9999999999999982 10.000000000000002 12.999999999999998 10 10.999999999999998 9.9999999999999982 19 13.000000000000002 14.999999999999998 9.9999999999999982 10 14.999999999999998 15.999999999999998 15.999999999999998 12.999999999999998 15.999999999999998 9.9999999999999982 12.000000000000002 9.9999999999999982 10.000000000000002 14.999999999999998 13.999999999999998 9.9999999999999982 17 11.000000000000002 13.000000000000002 12.999999999999998 11.999999999999998\nleaf_count=10 10 13 10 11 10 19 13 15 10 10 15 16 16 13 16 10 12 10 10 15 14 10 17 11 13 13 12\ninternal_value=0 0.0817574 -0.88298 -0.00676314 0.384118 0.150498 0.388322 0.750233 -0.140398 -0.308597 -0.0968971 -0.0603679 -0.182057 -0.103494 -0.197279 -0.289649 0.204805 0.243357 0.348066 0.0546539 0.630193 -0.18711 -0.253989 -0.174622 -0.338983 -0.535353 0.13266\ninternal_weight=0 324 30 314 80 70 57 38 234 20 224 213 146 130 117 101 67 23 51 25 26 86 76 66 43 26 23\ninternal_count=354 324 30 314 80 70 57 38 234 20 224 213 146 130 117 101 67 23 51 25 26 86 76 66 43 26 23\nshrinkage=0.55\n\n\nTree=6\nnum_leaves=29\nnum_cat=0\nsplit_feature=3 3 0 9 11 4 5 0 11 3 11 10 4 7 8 6 5 0 4 8 5 6 3 6 10 11 11 4\nsplit_gain=17.6762 65.8012 47.9864 20.2623 16.591 16.4923 9.88032 8.5524 7.52111 9.62215 14.0176 8.65345 6.16055 7.94114 9.15915 16.5144 5.06262 5.31962 5.54571 3.27763 3.13282 4.26032 2.99935 2.72318 4.42864 1.14658 0.986671 0.504397\nthreshold=0.65100000000000013 0.62750000000000006 3.6234500000000005 14.750000000000002 3.7850000000000006 7.4160000000000013 97.800000000000026 14.377250000000002 6.4150000000000009 0.44600000000000006 5.0700000000000012 390.01500000000004 6.7445000000000013 2.5000000000000004 278.00000000000006 4.3607000000000005 96.800000000000026 0.09222000000000001 6.4365000000000014 322.00000000000006 88.450000000000017 2.8315000000000006 0.69650000000000001 2.8001000000000005 390.66000000000003 20.395000000000003 18.095000000000002 5.9230000000000009\ndecision_type=2 2 2 2 2 2 2 2 2 2 2 2 2 2 2 2 2 2 2 2 2 2 2 2 2 2 2 2\nleft_child=1 3 -2 5 -5 -1 22 -8 9 10 -6 -11 13 -10 15 -15 17 19 20 -16 23 -22 -4 -19 -25 -18 -24 -26\nright_child=2 -3 6 4 8 -7 7 -9 12 11 -12 -13 -14 14 16 -17 25 18 -20 -21 21 -23 26 24 27 -27 -28 -29\nleaf_value=0.066232193633913986 -1.2982121497392656 1.449052063524723 0.33845844287425281 -0.66257070849339172 -0.51846874020993694 1.042158432751894 -0.049029417851796507 -0.72557783830910927 -0.40592007393017415 0.82731533430516702 0.29894837026794752 0.1668017177283764 -0.41625012251046989 0.78458788904050969 0.010906540686264631 -0.094688647203812648 -0.16926786940544838 -0.24342103517230823 0.42789561972022061 -0.40136591286531514 0.40595946271593358 -0.080117152482271206 -0.073724315644187077 0.26640353460929228 -0.20392525245745971 -0.43264650747179989 0.13225933522917332 -0.040873319655656819\nleaf_weight=11.000000000000002 10.999999999999998 9.9999999999999982 11.999999999999998 11.999999999999998 11.000000000000002 9.9999999999999982 13.000000000000002 9.9999999999999982 14.999999999999998 10.000000000000002 14.999999999999998 14.999999999999998 12.999999999999998 12.000000000000002 10.000000000000002 13.999999999999998 10.000000000000002 17 10.999999999999998 13.999999999999998 12.000000000000002 9.9999999999999982 17.000000000000004 13.999999999999998 12.000000000000002 9.9999999999999982 11.999999999999998 10.999999999999998\nleaf_count=11 11 10 12 12 11 10 13 10 15 10 15 15 13 12 10 14 10 17 11 14 12 10 17 14 12 10 12 11\ninternal_value=0 0.115857 -0.430987 0.0222215 -0.0576427 0.96538 -0.099371 -0.623965 0.000680928 0.340686 -0.0852399 0.783649 -0.0930503 -0.0428817 0.0235343 0.565693 -0.0840697 -0.00062377 0.114357 -0.417429 0.0183044 0.336392 0.194914 -0.111287 0.0409307 -0.547195 0.0209278 -0.228989\ninternal_weight=0 279 75 269 248 21 64 23 236 51 26 25 185 172 157 26 131 111 87 24 76 22 41 54 37 20 29 23\ninternal_count=354 279 75 269 248 21 64 23 236 51 26 25 185 172 157 26 131 111 87 24 76 22 41 54 37 20 29 23\nshrinkage=0.55\n\n\nTree=7\nnum_leaves=29\nnum_cat=0\nsplit_feature=4 11 4 6 11 6 2 10 2 5 4 4 9 9 8 0 7 4 5 5 6 0 5 5 6 3 4 4\nsplit_gain=16.0462 14.6555 13.5978 7.32937 25.7493 10.5283 7.69858 18.7679 10.3216 4.06963 2.34778 4.97587 3.31271 3.3923 2.43057 1.83649 1.76978 1.76054 1.6658 3.35931 1.2773 1.71421 1.12473 1.00361 0.938653 0.860812 0.746986 0.67481\nthreshold=7.926000000000001 3.5650000000000004 7.1740000000000004 1.7269000000000003 19.605000000000004 1.4577500000000003 3.7650000000000001 393.75500000000005 2.3850000000000002 97.250000000000014 6.1790000000000012 6.6985000000000001 17.850000000000005 16.500000000000004 364.00000000000006 0.12779500000000002 3.5000000000000004 6.3225000000000007 47.900000000000013 60.550000000000004 2.7377000000000007 0.32045500000000005 94.550000000000011 87.100000000000009 2.1114000000000002 0.48850000000000005 5.9275000000000011 5.8955000000000011\ndecision_type=2 2 2 2 2 2 2 2 2 2 2 2 2 2 2 2 2 2 2 2 2 2 2 2 2 2 2 2\nleft_child=1 -1 3 4 -3 -6 7 8 -5 10 16 12 13 -12 -13 -14 27 -17 25 -20 22 -22 26 -19 -11 -18 -21 -8\nright_child=-2 2 -4 6 5 -7 9 -9 -10 24 11 14 15 -15 -16 17 18 23 19 20 21 -23 -24 -25 -26 -27 -28 -29\nleaf_value=0.5339612253010273 -0.68679379656910899 1.0058541359752418 -0.46984151009366742 -0.39987673290473003 -0.41206101700663555 0.26080147858489966 -0.023659051733557129 0.6739746022969485 0.33173107583075762 -0.40158870041370376 -0.093786492440849509 -0.054675806581508363 0.12953489712905139 -0.51987712567027378 0.31997827515006061 -0.28936507073896273 0.075431197118014076 0.077601730823516818 -0.26404973036842422 0.3240031192451715 -0.12133721277902002 0.12300161914899946 -0.0024110601283609868 -0.15734197329729796 -0.16876429226249459 0.29839286282658578 0.12046785558729123 -0.22571345262229442\nleaf_weight=15.999999999999998 9.9999999999999982 9.9999999999999982 18 14.000000000000002 12.000000000000002 17 10.000000000000002 15.999999999999998 9.9999999999999982 10.000000000000002 10.000000000000002 10 9.9999999999999982 12.999999999999998 11 13.999999999999998 10.000000000000002 11.000000000000002 10.999999999999998 10.000000000000002 19 15.999999999999998 10.999999999999998 10.999999999999998 10.999999999999998 10.999999999999998 11.999999999999998 9.9999999999999982\nleaf_count=16 10 10 18 14 12 17 10 16 10 10 10 10 10 13 11 14 10 11 11 10 19 16 11 11 11 11 12 10\ninternal_value=0 0.0362999 -0.00928737 0.0397754 0.445102 -0.0320443 -0.0185557 0.386483 -0.1728 -0.0886923 -0.0467192 -0.168812 -0.298529 -0.608401 0.257403 -0.143593 0.0448501 -0.248902 0.0991605 0.0326167 0.115555 -0.0175263 0.256701 -0.0724911 -0.508424 0.349492 0.387243 -0.226702\ninternal_weight=0 344 328 310 39 29 271 40 24 231 210 90 69 23 21 46 120 36 100 79 68 35 33 22 21 21 22 20\ninternal_count=354 344 328 310 39 29 271 40 24 231 210 90 69 23 21 46 120 36 100 79 68 35 33 22 21 21 22 20\nshrinkage=0.55\n\n\nTree=8\nnum_leaves=28\nnum_cat=0\nsplit_feature=3 4 6 5 5 9 4 6 9 5 4 4 10 11 3 6 8 5 9 11 11 6 4 7 10 5 11\nsplit_gain=7.17679 27.7909 23.943 5.51379 9.24406 7.15961 7.88934 11.4342 8.46768 9.75175 6.3041 3.26511 3.16923 4.24433 4.40417 2.20209 3.84524 2.17091 2.14679 1.70739 1.54724 1.41379 1.3772 1.33836 1.38558 1.29289 1.28116\nthreshold=0.63900000000000012 6.7760000000000007 1.6634000000000002 83.90000000000002 87.100000000000009 17.850000000000005 6.7445000000000013 3.2986000000000004 15.050000000000002 38.250000000000007 6.9450000000000012 6.5145000000000008 329.75000000000006 22.670000000000005 0.70650000000000002 2.1989000000000005 434.50000000000006 35.300000000000004 19.650000000000002 13.630000000000001 17.830000000000002 3.7156500000000006 5.9275000000000011 5.5000000000000009 396.37500000000006 44.050000000000004 7.6500000000000012\ndecision_type=2 2 2 2 2 2 2 2 2 2 2 2 2 2 2 2 2 2 2 2 2 2 2 2 2 2 2\nleft_child=2 12 -1 5 -5 6 7 -4 -8 -10 18 17 20 14 -14 16 -6 -9 23 -17 -2 -21 -20 24 25 26 -7\nright_child=1 -3 3 4 15 10 8 11 9 -11 -12 -13 13 -15 -16 19 -18 -19 22 21 -22 -23 -24 -25 -26 -27 -28\nleaf_value=0.87796912893652923 0.29285668320953839 -0.95645804964005954 0.55169437043368819 -0.5835562206804753 0.33333043828606596 0.025721624430152579 -0.0020546493430932365 -0.16140071563422675 0.97861617103219012 0.26749180009854695 -0.427378647774458 -0.34735607059362034 -0.53448325879871827 0.099280398587385812 -0.069195731077343225 -0.2596231049423417 -0.12654796764254569 0.16943147985342269 -0.014404389467866468 0.13436484694480891 0.021283530766765278 -0.14070743474249658 0.22359453199529336 0.14265485018491747 -0.19700392504271708 0.086865594394897161 -0.25268530784174803\nleaf_weight=9.9999999999999982 11.000000000000002 10.999999999999998 9.9999999999999982 10.999999999999998 11.000000000000002 10.000000000000002 11.999999999999998 12.000000000000002 10.000000000000002 13.999999999999998 10.999999999999998 11.999999999999998 10.000000000000002 18 15.999999999999998 14.999999999999998 10.999999999999998 11.999999999999998 12.000000000000002 10.000000000000002 14.999999999999998 12.999999999999998 19 9.9999999999999982 19 19 9.9999999999999982\nleaf_count=10 11 11 10 11 11 10 12 12 10 14 11 12 10 18 16 15 11 12 12 10 15 13 19 10 19 19 10\ninternal_value=0 -0.261398 0.0775576 0.0198105 -0.218295 0.10786 0.331517 0.0571162 0.682141 1.02508 -0.0588667 -0.205652 -0.0292011 -0.192765 -0.451186 -0.0637966 0.187984 0.00730069 0.0209316 -0.209564 0.2476 -0.0383833 0.239029 -0.0784951 -0.136748 -0.0288667 -0.206331\ninternal_weight=0 81 273 263 71 192 82 46 36 24 110 36 70 44 26 60 22 24 99 38 26 23 31 68 58 39 20\ninternal_count=354 81 273 263 71 192 82 46 36 24 110 36 70 44 26 60 22 24 99 38 26 23 31 68 58 39 20\nshrinkage=0.55\n\n\nTree=9\nnum_leaves=29\nnum_cat=0\nsplit_feature=6 4 9 4 4 4 10 11 2 5 7 5 4 9 3 6 10 9 8 10 10 8 0 7 5 4 0 6\nsplit_gain=5.32124 7.20428 3.51766 10.4639 9.80051 5.24137 2.8257 3.13845 4.89979 3.74475 2.87681 2.90786 3.38597 1.93786 1.89571 1.71022 1.55651 1.54868 2.48054 2.81146 1.71305 1.42823 1.95524 0.991976 1.17769 0.617213 0.545949 0.466912\nthreshold=1.3989500000000004 5.0645000000000007 14.750000000000002 7.4795000000000007 7.6275000000000004 6.1245000000000003 394.65000000000003 7.4750000000000005 5.160000000000001 53.650000000000013 2.5000000000000004 17.600000000000005 6.4030000000000014 16.950000000000003 0.61150000000000004 3.5949000000000004 395.57500000000005 20.950000000000003 302.00000000000006 290.27000000000004 391.04500000000002 426.00000000000006 3.7359650000000006 7.5000000000000009 49.150000000000006 6.5025000000000004 0.24751000000000004 4.083800000000001\ndecision_type=2 2 2 2 2 2 2 2 2 2 2 2 2 2 2 2 2 2 2 2 2 2 2 2 2 2 2 2\nleft_child=-1 -2 3 5 6 -3 10 9 -9 25 -4 -12 17 -14 15 -15 -10 18 20 -20 -13 -21 -23 24 -18 -8 -26 -19\nright_child=1 2 4 -5 -6 -7 7 8 16 -11 11 12 13 14 -16 -17 23 27 19 21 -22 22 -24 -25 26 -27 -28 -29\nleaf_value=0.3599896470705668 -0.43124287410949674 0.23887235130183393 -0.26736490840092303 0.58327274328718592 -0.50352054573595528 -0.30027291004856432 -0.017433152394369239 0.48125226730480797 0.26617825403809547 -0.3236648291349411 -0.25609149791167252 0.22037374461069698 0.32173299640417102 -0.19607421541586514 0.20084230760112406 0.089443903192877774 0.12424105703830716 0.14737947837760049 0.063546469521575749 -0.10756755463386838 -0.094155689775943754 -0.48007079809904085 -0.16500600140022401 0.15198424808681013 -0.0089392269030213328 0.17136315532028676 -0.1906805731356144 -0.013537212535738946\nleaf_weight=11.999999999999998 11.999999999999998 10.000000000000002 14.999999999999998 11.999999999999998 11.999999999999998 11.999999999999998 11.000000000000002 10.999999999999998 10.999999999999998 10.999999999999998 13.999999999999998 11.000000000000002 10.999999999999998 11.000000000000002 18 14.999999999999998 11.000000000000002 12.000000000000002 13.999999999999998 19 9.9999999999999982 11.000000000000002 12.999999999999998 14.999999999999998 10.000000000000002 9.9999999999999982 9.9999999999999982 9.9999999999999982\nleaf_count=12 12 10 15 12 12 12 11 11 11 11 14 11 11 11 18 15 11 12 14 19 10 11 13 15 10 10 10 10\ninternal_value=0 -0.0229658 0.00471096 0.309343 -0.0302806 -0.100376 0.0071227 0.142427 0.263956 -0.115821 -0.0664125 -0.0291605 0.0102617 0.209556 0.115703 -0.057004 0.146034 -0.0993501 -0.165441 -0.273684 0.12836 -0.400408 -0.562565 0.065226 -0.0369235 0.131763 -0.181473 0.134974\ninternal_weight=0 342 330 34 296 22 284 100 68 32 184 169 155 55 44 26 57 100 78 57 21 43 24 46 31 21 20 22\ninternal_count=354 342 330 34 296 22 284 100 68 32 184 169 155 55 44 26 57 100 78 57 21 43 24 46 31 21 20 22\nshrinkage=0.55\n\n\nTree=10\nnum_leaves=29\nnum_cat=0\nsplit_feature=3 11 3 6 8 10 4 10 9 6 5 10 2 11 6 3 6 3 4 5 11 5 6 5 0 11 9 8\nsplit_gain=4.06073 15.3847 15.2727 4.53622 3.86026 3.14931 11.0391 9.3581 7.64898 3.538 2.50987 2.22345 2.62419 2.35074 2.11299 4.36608 1.78154 1.70132 1.27532 1.24308 1.49974 1.05779 1.956 2.85886 0.896278 1.46891 0.748739 0.294967\nthreshold=0.65100000000000013 13.995000000000003 0.62750000000000006 1.4222500000000002 195.50000000000003 386.85500000000008 7.1415000000000006 391.98500000000007 17.500000000000004 4.4546500000000009 95.65000000000002 394.48500000000007 3.5400000000000005 5.5450000000000008 7.358200000000001 0.44750000000000006 2.0162500000000003 0.53500000000000014 5.7440000000000007 88.450000000000017 12.08 91.65000000000002 4.2040000000000006 70.350000000000009 4.9941950000000004 18.335000000000004 17.500000000000004 284.50000000000006\ndecision_type=2 2 2 2 2 2 2 2 2 2 2 2 2 2 2 2 2 2 2 2 2 2 2 2 2 2 2 2\nleft_child=2 -2 4 -3 -1 6 14 8 -7 -10 24 12 -9 -13 15 -6 -17 -14 -12 20 -18 22 23 -15 -5 -26 -24 -28\nright_child=1 3 -4 10 5 7 -8 11 9 -11 18 13 17 21 -16 16 19 -19 -20 -21 -22 -23 26 -25 25 -27 27 -29\nleaf_value=0.29810745377953235 -0.71447010480333129 -0.35060697410255676 0.69795524507761009 0.081533537805080422 0.37704697560518979 -0.63657948328898506 0.62055769562721252 0.36819340408779683 -0.30700209073435797 0.11681549549102785 0.34073668146505942 -0.20932861585170032 -0.056799239524958745 0.38460338845849024 -0.21753707267344 -0.22827838264405728 -0.0035425392711268995 0.21499684974551203 0.074791056476533418 -0.07565019007184004 0.2753342316672206 -0.13858751839337249 0.076430666819214829 0.017826678029571972 -0.26482820467092089 0.026426679361611607 -0.03147079894940058 -0.14898266462343079\nleaf_weight=12.999999999999998 10.999999999999998 9.9999999999999982 9.9999999999999982 10.999999999999998 9.9999999999999982 12.999999999999998 9.9999999999999982 9.9999999999999982 13.000000000000002 10.999999999999998 10.000000000000002 18 19.000000000000004 10.000000000000002 10.999999999999998 9.9999999999999982 14.000000000000002 10.999999999999998 11.999999999999998 19 9.9999999999999982 11.999999999999998 10.999999999999998 18 10.000000000000002 10.999999999999998 12.000000000000002 13.999999999999998\nleaf_count=13 11 10 10 11 10 13 10 10 13 11 10 18 19 10 11 10 14 11 12 19 10 12 11 18 10 11 12 14\ninternal_value=0 -0.206572 0.0555301 -0.0188048 0.0104194 -0.0165756 0.142137 -0.0940866 -0.539636 -0.205004 0.0957623 0.0280268 0.225805 -0.0552482 0.00887399 0.0794828 -0.0348676 0.077926 0.355774 0.0535473 0.204829 0.0208074 0.0711677 0.270579 -0.0829954 -0.20412 -0.0797381 -0.172266\ninternal_weight=0 75 279 64 269 256 84 172 37 24 54 135 40 95 74 63 53 30 22 43 24 77 65 28 32 21 37 26\ninternal_count=354 75 279 64 269 256 84 172 37 24 54 135 40 95 74 63 53 30 22 43 24 77 65 28 32 21 37 26\nshrinkage=0.55\n\n\nTree=11\nnum_leaves=29\nnum_cat=0\nsplit_feature=4 5 5 6 4 2 3 4 11 0 4 2 4 5 5 7 2 10 10 10 11 0 11 5 11 5 2 5\nsplit_gain=3.93357 12.8575 10.4579 7.33644 3.23589 3.02795 2.89322 3.39276 1.85077 3.24029 1.67794 1.72629 0.82866 1.71664 2.42745 1.98143 1.13707 0.980382 1.27134 0.991042 0.859981 0.823258 1.39863 0.780162 0.709849 0.585253 0.547935 0.366169\nthreshold=6.7275000000000009 81.65000000000002 91.450000000000017 1.3989500000000004 7.6275000000000004 2.5700000000000007 0.75500000000000012 5.0645000000000007 4.4750000000000005 0.053985000000000005 6.472500000000001 13.360000000000001 6.1575000000000006 95.90000000000002 91.65000000000002 7.5000000000000009 5.2550000000000017 378.17000000000002 388.55000000000001 290.27000000000004 9.4400000000000013 0.28174500000000008 13.215000000000002 71.300000000000011 18.095000000000002 65.700000000000017 14.480000000000002 58.050000000000004\ndecision_type=2 2 2 2 2 2 2 2 2 2 2 2 2 2 2 2 2 2 2 2 2 2 2 2 2 2 2 2\nleft_child=3 4 -3 -1 8 -5 7 -7 -2 -10 12 25 17 14 15 16 -14 19 -19 -9 -18 22 27 -24 -23 -12 -21 -20\nright_child=1 2 -4 5 -6 6 -8 10 9 -11 11 -13 13 -15 -16 -17 20 18 21 26 -22 24 23 -25 -26 -27 -28 -29\nleaf_value=0.49285492967814215 -0.22396180232365928 -0.8807028661668298 -0.11914097340777517 0.25315019021431606 0.27261144569358575 -0.32848450183868411 0.2515324137818355 0.056285752349843586 0.26804313808679575 -0.11085400585499076 -0.052395160666977351 0.30509759169071915 -0.27887821964919568 0.11772618250300489 -0.35685830444097522 0.14549577198922636 0.036549700187662466 0.21432019663043322 0.022608499099603958 -0.045125533349346367 -0.17798590291058647 0.024685509161402778 0.044740617880597702 0.2527465324383229 -0.16449229733843823 0.12776354434434326 -0.19144514030466478 -0.10476238718256355\nleaf_weight=9.9999999999999982 11.999999999999998 10.000000000000002 11.999999999999998 14.999999999999998 12.999999999999998 9.9999999999999982 12.999999999999998 14.999999999999998 11.000000000000002 18 12.000000000000002 9.9999999999999982 9.9999999999999982 11.999999999999998 9.9999999999999982 10.999999999999998 13.000000000000002 10.999999999999998 18.000000000000004 16.000000000000004 9.9999999999999982 12.000000000000002 10.000000000000002 11.999999999999998 11.999999999999998 9.9999999999999982 14.999999999999998 10.999999999999998\nleaf_count=10 12 10 12 15 13 10 13 15 11 18 12 10 10 12 10 11 13 11 18 16 10 12 10 12 12 10 15 11\ninternal_value=0 -0.201608 -0.84601 0.0551158 0.0609262 0.0237358 -0.00214583 -0.0270342 -0.0769153 0.0597556 -0.00224244 0.21022 -0.0365798 -0.128069 -0.204095 -0.103018 -0.225537 0.00916491 0.0721939 -0.108672 -0.103139 0.0256303 0.097502 0.287633 -0.127097 0.0536276 -0.210773 -0.0467356\ninternal_weight=0 76 22 278 54 268 253 240 41 29 230 32 198 66 54 44 33 132 86 46 23 75 51 22 24 22 31 29\ninternal_count=354 76 22 278 54 268 253 240 41 29 230 32 198 66 54 44 33 132 86 46 23 75 51 22 24 22 31 29\nshrinkage=0.55\n\n\nTree=12\nnum_leaves=28\nnum_cat=0\nsplit_feature=0 0 6 5 0 11 4 11 10 5 11 0 8 6 6 6 0 8 4 8 5 11 11 0 2 5 0\nsplit_gain=3.52669 11.6234 6.39736 2.34307 1.87331 3.38466 3.67046 2.66397 1.60656 1.46894 1.15304 3.04563 1.38676 1.1953 1.18826 1.11338 1.40086 1.0557 0.552422 0.539818 0.541142 0.489094 0.474109 0.457436 0.623015 0.457135 0.314302\nthreshold=10.960800000000001 8.6807550000000013 1.5145000000000002 98.850000000000009 0.035810000000000002 4.1850000000000014 7.4160000000000013 4.4750000000000005 394.03500000000003 94.550000000000011 5.5450000000000008 0.078910000000000022 222.50000000000003 2.1114000000000002 1.8200500000000002 2.3617000000000004 3.2423250000000006 400.00000000000006 6.488500000000001 291.00000000000006 38.250000000000007 7.9750000000000014 16.385000000000005 0.20205000000000004 5.7500000000000009 71.300000000000011 0.11230500000000002\ndecision_type=2 2 2 2 2 2 2 2 2 2 2 2 2 2 2 2 2 2 2 2 2 2 2 2 2 2 2\nleft_child=1 3 -2 4 7 -6 10 -1 -9 -4 11 -7 -12 14 -14 -15 17 18 19 20 -17 -20 23 24 -21 -25 -22\nright_child=2 -3 9 -5 5 6 -8 8 -10 -11 12 -13 13 15 -16 16 -18 -19 21 22 26 -23 -24 25 -26 -27 -28\nleaf_value=-0.35180629804730423 -0.49104624791070822 0.54945933918158218 -0.16021218729205428 -0.21433259184161824 0.2543839754536748 -0.32373592831194392 -0.31909336373209957 -0.17751030310988422 0.11571610431330137 0.11578649151737669 0.23407512774690986 0.079996270342515066 0.016074865510953322 -0.14185247523710132 0.24268023084316939 0.0597293078036455 0.15999349751754813 -0.14248685981812223 0.010107321776449678 0.097047422969570502 -0.009717676604632285 0.17817036751657728 -0.066185014384488275 0.042526425405715898 -0.067455523187915492 0.20174931278452279 -0.13018191105097926\nleaf_weight=9.9999999999999982 11.999999999999998 11.999999999999998 10 14.999999999999998 18 10.000000000000002 9.9999999999999982 10.000000000000002 12.999999999999998 14 9.9999999999999982 12.999999999999998 14.000000000000002 13.999999999999998 13.999999999999998 9.9999999999999982 19 13.999999999999998 10.000000000000002 13.000000000000002 10.000000000000002 10.999999999999998 11.999999999999998 12.000000000000002 14.999999999999998 9.9999999999999982 19\nleaf_count=10 12 12 10 15 18 10 10 10 13 14 10 13 14 14 14 10 19 14 10 13 10 11 12 12 15 10 19\ninternal_value=0 0.033583 -0.29665 -0.00427716 0.0155898 0.0442847 0.0129173 -0.208752 -0.0214066 0.00143099 0.0387037 -0.173708 0.062305 0.0438641 0.235232 0.0121582 0.0365518 0.00101825 0.0308641 0.000180625 -0.0919972 0.178437 0.0581635 0.101003 0.0162197 0.20891 -0.161168\ninternal_weight=0 318 36 306 291 258 240 33 23 24 230 23 207 197 28 169 155 136 122 101 39 21 62 50 28 22 29\ninternal_count=354 318 36 306 291 258 240 33 23 24 230 23 207 197 28 169 155 136 122 101 39 21 62 50 28 22 29\nshrinkage=0.55\n\n\nTree=13\nnum_leaves=26\nnum_cat=0\nsplit_feature=6 7 4 11 5 11 5 9 11 4 7 2 5 5 10 4 0 4 3 4 9 10 7 4 3\nsplit_gain=2.07914 2.81631 7.80822 6.20398 1.75502 5.38011 1.59314 1.25808 6.6633 2.40422 2.43885 1.39687 0.920685 0.741918 0.546064 0.703037 1.31842 0.592273 0.464174 1.24812 0.421695 0.419013 0.398081 0.359589 0.281242\nthreshold=1.4222500000000002 5.5000000000000009 7.8255000000000008 5.8950000000000005 92.500000000000014 20.000000000000004 83.350000000000009 15.050000000000002 7.410000000000001 7.051000000000001 2.5000000000000004 3.7650000000000001 99.450000000000017 87.750000000000014 396.37500000000006 6.0670000000000011 0.078910000000000022 6.2135000000000007 0.58200000000000007 6.5770000000000008 19.150000000000002 394.03500000000003 1.5000000000000002 6.1445000000000007 0.53500000000000014\ndecision_type=2 2 2 2 2 2 2 2 2 2 2 2 2 2 2 2 2 2 2 2 2 2 2 2 2\nleft_child=-1 2 7 -3 6 -6 18 8 -2 10 22 -12 -7 -8 15 21 -17 -18 19 23 -16 24 -9 -5 -13\nright_child=1 3 -4 4 5 12 13 9 -10 -11 11 14 -14 -15 20 16 17 -19 -20 -21 -22 -23 -24 -25 -26\nleaf_value=0.20038149900734425 -0.37665823942848609 -0.46865261495113375 0.50414714697748431 0.0057427360443398348 -0.35317823243223961 -0.072508359141647813 0.24386337630450719 -0.096310134045779705 0.13573078940458158 0.25211097858846188 0.17116177616346825 0.10628597004688346 0.1436917155622863 0.050459582035740219 0.008442644539343961 0.12752941950725824 -0.19160030204802747 -0.026234408428794462 -0.13214643010153221 -0.13764306541000096 -0.11807956114566576 0.18021799306385222 -0.24793201001593843 0.14984774579294027 0.0073167664587105588\nleaf_weight=14.999999999999998 14.000000000000002 10.999999999999998 9.9999999999999982 11.000000000000002 18 11 10.000000000000002 11 17 12.999999999999998 19 15.999999999999998 13 14.999999999999998 17 12.999999999999998 10.000000000000002 19 12.999999999999998 13.999999999999998 14.999999999999998 9.9999999999999982 10 9.9999999999999982 19\nleaf_count=15 14 11 10 11 18 11 10 11 17 13 19 16 13 15 17 13 10 19 13 14 15 10 10 10 19\ninternal_value=0 -0.0161208 0.053982 -0.134628 -0.0660006 -0.228866 0.0277028 0.011487 -0.173947 0.0449082 0.011102 0.0594151 0.0810909 0.232402 0.0192136 0.0602968 -0.0327521 -0.151377 -0.0789113 -0.0189795 -0.0924812 0.147142 -0.306384 0.135208 0.0955633\ninternal_weight=0 339 213 126 115 42 73 203 31 172 159 138 24 25 119 87 42 29 48 35 32 45 21 21 35\ninternal_count=354 339 213 126 115 42 73 203 31 172 159 138 24 25 119 87 42 29 48 35 32 45 21 21 35\nshrinkage=0.55\n\n\nTree=14\nnum_leaves=30\nnum_cat=0\nsplit_feature=3 3 0 5 3 6 0 11 7 8 2 11 0 11 6 8 11 4 11 5 6 4 6 0 2 6 4 4 6\nsplit_gain=2.08063 6.59222 6.18302 3.01645 3.311 2.74214 1.38263 2.45999 1.94434 1.62272 2.34585 1.31881 1.31348 1.0504 0.819592 1.64979 0.634095 0.400955 0.387657 0.391312 0.609178 0.77835 0.55823 0.354827 0.232598 0.218524 0.254009 0.139765 0.163912\nthreshold=0.65100000000000013 0.62750000000000006 3.6234500000000005 97.050000000000011 0.69650000000000001 1.8200500000000002 0.035810000000000002 4.1850000000000014 3.5000000000000004 219.00000000000003 3.4250000000000003 17.830000000000002 0.056530000000000004 5.3600000000000003 2.2571000000000003 434.50000000000006 5.7350000000000003 6.1575000000000006 18.335000000000004 91.65000000000002 3.5949000000000004 6.5540000000000012 4.0054500000000006 0.13045000000000004 9.7950000000000017 5.9227000000000007 6.1020000000000012 6.0090000000000012 4.8375000000000012\ndecision_type=2 2 2 2 2 2 2 2 2 2 2 2 2 2 2 2 2 2 2 2 2 2 2 2 2 2 2 2 2\nleft_child=1 6 -2 5 -5 -4 8 -8 16 -9 12 -7 -11 -12 17 18 -1 -15 19 20 23 22 -22 -16 -25 27 -27 -24 -29\nright_child=2 -3 3 4 -6 11 7 9 -10 10 13 -13 -14 14 15 -17 -18 -19 -20 -21 21 -23 25 24 -26 26 -28 28 -30\nleaf_value=0.10567940928041933 -0.46223949044942858 0.46034480586647991 0.27287936768594334 -0.34265968208866454 0.071706226076930765 0.068891017744317648 0.22185085496919998 0.19312368978817879 -0.26547710729333074 -0.045270484462380398 0.16940071551750105 -0.18572213260922582 -0.32716712924651808 -0.031344565091421819 -0.016709129512310027 0.21276850535844763 -0.090184654211625456 -0.16775135174393654 0.094323996640741828 -0.099479872919619086 -0.12386591773014516 -0.16850434055551888 0.083578713306536281 0.15589816213274993 0.042322115032002332 -0.091008800975978341 0.030106843169778588 -0.036896038586273779 0.060396935304743243\nleaf_weight=10.000000000000002 10.999999999999998 9.9999999999999982 13.999999999999998 14.000000000000002 9.9999999999999982 16.000000000000004 17 12.999999999999998 12.999999999999998 10.000000000000002 11.999999999999998 9.9999999999999982 9.9999999999999982 16.000000000000004 10.999999999999998 11.999999999999998 9.9999999999999982 10.999999999999998 11.999999999999998 12.999999999999998 9.9999999999999982 9.9999999999999982 14.999999999999998 12.000000000000002 9.9999999999999982 10.000000000000002 10.999999999999998 10.000000000000002 10.999999999999998\nleaf_count=10 11 10 14 14 10 16 17 13 13 10 12 10 10 16 11 12 10 11 12 13 10 10 15 12 10 10 11 10 11\ninternal_value=0 0.0397489 -0.147866 -0.0288303 -0.309104 0.139334 0.0101116 0.0369204 -0.181612 0.00847492 -0.0131492 -0.0527948 -0.33858 0.0218433 0.00210829 0.0315219 0.0140861 -0.158032 -6.30361e-05 -0.0168007 0.00258959 -0.0461282 -0.0072859 0.116264 0.189587 0.0309465 -0.0501223 0.0782367 0.0255763\ninternal_weight=0 279 75 64 24 40 269 236 33 219 206 26 20 186 174 147 20 27 135 123 110 77 67 33 22 57 21 36 21\ninternal_count=354 279 75 64 24 40 269 236 33 219 206 26 20 186 174 147 20 27 135 123 110 77 67 33 22 57 21 36 21\nshrinkage=0.55\n\n\nTree=15\nnum_leaves=29\nnum_cat=0\nsplit_feature=4 4 4 6 3 4 0 1 11 2 0 2 5 5 3 11 0 6 0 0 10 7 11 7 4 10 0 9\nsplit_gain=2.92624 2.60145 3.33518 2.53449 2.55808 1.27654 0.885566 1.25055 2.82051 1.54872 1.15413 0.928481 0.460126 1.09875 0.643009 0.6416 0.603515 0.763745 0.322171 0.312558 0.275323 0.255529 0.239535 0.487435 0.522758 0.234334 0.229528 0.145626\nthreshold=7.926000000000001 7.6275000000000004 7.1740000000000004 1.4222500000000002 0.75500000000000012 5.0645000000000007 0.025205000000000002 42.500000000000007 5.2000000000000011 3.3500000000000005 0.046280000000000009 4.4400000000000004 94.350000000000009 92.65000000000002 0.68600000000000005 17.025000000000002 10.960800000000001 2.0875500000000007 1.0902550000000002 2.0796850000000004 388.55000000000001 4.5000000000000009 13.395000000000001 5.5000000000000009 6.3745000000000012 386.51500000000004 0.17308500000000002 19.150000000000002\ndecision_type=2 2 2 2 2 2 2 2 2 2 2 2 2 2 2 2 2 2 2 2 2 2 2 2 2 2 2 2\nleft_child=1 2 3 -1 5 -5 -7 8 -8 -10 -9 -11 13 14 15 19 17 25 -19 20 21 -13 23 24 26 -14 27 -22\nright_child=-2 -3 -4 4 -6 6 7 10 9 11 -12 12 16 -15 -16 -17 -18 18 -20 -21 22 -23 -24 -25 -26 -27 -28 -29\nleaf_value=0.24059313769851415 -0.29328873895108704 0.27168393060564994 -0.25360312778502703 -0.20165076822042469 0.26163797006011014 -0.16245484728366139 -0.2672715947031975 0.0089545831394692247 0.21786427321843804 -0.15916635990142822 0.25559653006494049 -0.0028077384573407466 -0.1127651731483638 -0.1634796285858521 -0.10474318077166876 0.12252960575123628 0.15715145234329006 0.16217916454188522 0.028511330268035335 -0.078665100510876926 0.043779296614229676 0.10755632035434247 0.071090801867831038 -0.10043570428060776 0.10491297305919804 0.0035652476735413075 -0.078818982008046351 -0.039536335237789905\nleaf_weight=13.999999999999998 9.9999999999999982 10.999999999999998 14.999999999999998 9.9999999999999982 10.999999999999998 9.9999999999999982 11.999999999999998 12.000000000000002 9.9999999999999982 10.999999999999998 10.999999999999998 11.000000000000002 11.000000000000002 12.999999999999998 14.999999999999998 14.999999999999998 11.999999999999998 10.000000000000002 11.999999999999998 12.999999999999998 15.000000000000002 14.999999999999998 10.999999999999998 15.999999999999998 12.999999999999998 9.9999999999999982 13.999999999999998 10.999999999999998\nleaf_count=14 10 11 15 10 11 10 12 12 10 11 11 11 11 13 15 15 12 10 12 13 15 15 11 16 13 10 14 11\ninternal_value=0 0.0155015 -0.000303771 0.0214317 0.00227337 -0.0155005 -0.00309285 0.00761336 -0.0129154 0.010935 0.230752 -0.00595897 0.00840868 -0.0184221 0.00590397 0.027883 0.0874374 0.0320999 0.162308 0.00331602 0.0212638 0.110662 -0.00779045 -0.0296384 0.0165418 -0.104309 -0.0400762 0.0155098\ninternal_weight=0 344 333 318 304 293 283 273 250 238 23 228 217 162 149 134 55 43 22 119 106 26 80 69 53 21 40 26\ninternal_count=354 344 333 318 304 293 283 273 250 238 23 228 217 162 149 134 55 43 22 119 106 26 80 69 53 21 40 26\nshrinkage=0.55\n\n\nTree=16\nnum_leaves=28\nnum_cat=0\nsplit_feature=0 6 11 3 10 6 6 0 11 4 3 6 4 4 8 0 11 6 10 10 6 4 11 4 5 5 0\nsplit_gain=1.34134 5.11819 4.5173 2.88294 1.83344 1.3582 1.81759 1.98996 0.975217 1.18353 4.38373 0.460987 1.06428 0.965278 0.354474 0.508298 0.714515 0.337513 0.657274 0.599823 0.490845 0.273767 0.436096 0.282769 0.225002 0.252989 0.37808\nthreshold=10.960800000000001 1.6283000000000001 22.670000000000005 0.71550000000000014 369.02000000000004 1.9372500000000001 2.2571000000000003 1.3898700000000002 3.4300000000000002 7.1415000000000006 0.47800000000000004 2.6191000000000004 5.9965000000000011 6.3745000000000012 223.50000000000003 0.042070000000000003 7.8200000000000012 5.7265000000000006 381.05500000000006 392.79000000000002 5.408500000000001 6.4365000000000014 7.9750000000000014 6.1790000000000012 47.900000000000013 84.300000000000026 0.26600500000000005\ndecision_type=2 2 2 2 2 2 2 2 2 2 2 2 2 2 2 2 2 2 2 2 2 2 2 2 2 2 2\nleft_child=1 -1 -2 5 -4 -3 7 -7 -8 11 -11 12 -10 -14 -13 16 -16 20 -19 -20 21 23 -23 24 -17 26 -26\nright_child=2 3 4 -5 -6 6 8 -9 9 10 -12 14 13 -15 15 17 -18 18 19 -21 -22 22 -24 -25 25 -27 -28\nleaf_value=0.30499798659892646 -0.33114544656748579 0.1619746907206718 0.21898712404072279 -0.25854159189531439 -0.10640689186751842 -0.2817818342774574 -0.15685597542673349 0.030821878905408086 -0.064800248201936486 -0.10552274836227296 0.38550167065113783 -0.10049272011965514 0.26420055223628869 0.028097212035208943 0.15578252045171598 0.057729424358694818 -0.036708238036371771 0.055130298113605633 -0.20695288481190796 -0.04053635865229329 0.12160214049741627 -0.023261907176735496 0.13225395766086878 -0.080299528884872989 0.018714081868529318 0.030976904579438271 -0.11754461447043078\nleaf_weight=17 14.999999999999998 15.999999999999998 11.000000000000002 12.999999999999998 9.9999999999999982 14.000000000000002 9.9999999999999982 10.999999999999998 11.999999999999998 11.000000000000002 10.999999999999998 10.999999999999998 10.000000000000002 10.999999999999998 14.000000000000002 13.999999999999998 9.9999999999999982 11.999999999999998 10.000000000000002 19 9.9999999999999982 12.000000000000002 9.9999999999999982 19 11.000000000000002 15.999999999999998 13.999999999999998\nleaf_count=17 15 16 11 13 10 14 10 11 12 11 11 11 10 11 14 14 10 12 10 19 10 12 10 19 11 16 14\ninternal_value=0 0.0207112 -0.182949 -0.00943868 0.116432 0.011354 -0.00530166 -0.262248 0.020705 0.0336121 0.254526 0.0110069 0.119751 0.255504 -0.00871032 0.0024829 0.137415 -0.0195468 -0.0965923 -0.178039 0.0102539 -0.0117087 0.0862311 -0.040826 -0.00449346 -0.0418687 -0.104711\ninternal_weight=0 318 36 301 21 288 272 25 247 237 22 215 33 21 182 171 24 147 41 29 106 96 22 74 55 41 25\ninternal_count=354 318 36 301 21 288 272 25 247 237 22 215 33 21 182 171 24 147 41 29 106 96 22 74 55 41 25\nshrinkage=0.55\n\n\nTree=17\nnum_leaves=27\nnum_cat=0\nsplit_feature=4 11 5 6 11 6 6 10 4 6 8 4 8 5 6 5 4 1 11 0 0 11 11 0 5 10\nsplit_gain=1.36673 1.5617 3.58254 2.51393 1.40726 1.36482 0.753164 0.818076 1.36221 0.911607 0.867006 0.83543 0.779146 0.743808 0.686348 0.499203 0.449667 0.285455 0.573386 0.277396 0.25953 0.249987 0.338107 0.242855 0.322961 0.24223\nthreshold=7.926000000000001 18.930000000000003 99.450000000000017 1.4577500000000003 27.590000000000003 1.7897500000000002 1.9791500000000002 395.26000000000005 7.0115000000000007 2.8001000000000005 223.50000000000003 7.2235000000000005 280.00000000000006 93.950000000000017 2.4218000000000006 17.100000000000005 5.9965000000000011 20.500000000000004 9.6850000000000005 0.15092000000000003 7.7121250000000012 7.1300000000000008 11.675000000000002 3.2423250000000006 82.550000000000011 389.70500000000004\ndecision_type=2 2 2 2 2 2 2 2 2 2 2 2 2 2 2 2 2 2 2 2 2 2 2 2 2 2\nleft_child=1 2 5 -3 16 -1 -7 10 9 -9 -8 13 -11 14 -12 -16 20 18 -17 -20 -5 -14 -23 24 -21 -19\nright_child=-2 3 -4 4 -6 6 7 8 -10 12 11 -13 21 -15 15 17 -18 25 19 23 -22 22 -24 -25 -26 -27\nleaf_value=-0.17845876105129718 -0.20043867224361747 -0.29927419191226368 0.34651203840971001 -0.19021466992795463 0.14524659654125571 0.16733591150492433 -0.12192260162490938 0.15737468951514791 0.24971603338606657 -0.10193177282926627 -0.13946000684339269 0.14499147006620963 0.1046137525771673 0.10977880230794351 -0.1175551697611809 -0.095532416169972795 -0.0077363772912778794 0.10672497313039808 0.082241282186337875 0.015941622837999599 -0.064908889997750518 -0.041641860802968333 0.088919252161867926 0.061234552599489699 -0.10342035644013474 0.0092926364833194972\nleaf_weight=10.999999999999998 9.9999999999999982 11.999999999999998 9.9999999999999982 10.000000000000002 11.999999999999998 9.9999999999999982 18 13.999999999999998 9.9999999999999982 15.999999999999998 12.999999999999998 11.999999999999998 12.999999999999998 14.999999999999998 10.999999999999998 19 18 12.999999999999998 13.999999999999998 16.000000000000004 9.9999999999999982 15.000000000000002 9.9999999999999982 10.999999999999998 11.999999999999998 19\nleaf_count=11 10 12 10 10 12 10 18 14 10 16 13 12 13 15 11 19 18 13 14 16 10 15 10 11 12 19\ninternal_value=0 0.010594 0.042187 -0.133103 -0.0344557 0.0205755 0.0351176 0.0243953 0.109418 0.0587401 -0.0139387 0.0101858 -0.000214309 -0.0110815 -0.0357704 -0.0111503 -0.128732 0.0102771 -0.0246499 0.0287815 -0.231931 0.0777293 0.0192411 -0.014564 -0.0640246 0.0888628\ninternal_weight=0 344 282 62 50 272 261 251 78 68 173 155 54 143 128 115 38 104 72 53 20 38 25 39 28 32\ninternal_count=354 344 282 62 50 272 261 251 78 68 173 155 54 143 128 115 38 104 72 53 20 38 25 39 28 32\nshrinkage=0.55\n\n\nTree=18\nnum_leaves=27\nnum_cat=0\nsplit_feature=4 6 6 5 11 9 6 9 4 2 10 11 4 4 4 5 4 10 6 5 5 11 8 4 6 4\nsplit_gain=1.1342 4.79186 4.29152 1.33072 3.9272 6.13841 1.02875 1.68602 0.557041 0.512317 0.831926 0.462019 0.399155 0.345902 0.322976 0.517023 0.588292 0.472765 1.1875 0.323374 0.290178 0.21428 0.128665 0.0872664 0.0822831 0.0381678\nthreshold=5.4130000000000011 1.5313500000000002 1.5145000000000002 74.550000000000011 7.5500000000000007 17.150000000000002 4.2040000000000006 18.350000000000005 6.7445000000000013 3.4250000000000003 392.17000000000007 5.3600000000000003 5.9275000000000011 6.543000000000001 5.8955000000000011 96.800000000000026 5.9820000000000002 388.02500000000003 2.6890500000000004 83.350000000000009 95.500000000000014 9.5150000000000023 284.50000000000006 6.3785000000000007 5.5261000000000005 6.2410000000000005\ndecision_type=2 2 2 2 2 2 2 2 2 2 2 2 2 2 2 2 2 2 2 2 2 2 2 2 2 2\nleft_child=1 -1 -2 6 5 -5 7 8 -4 10 -8 -11 -9 21 20 16 -16 23 -19 -20 -6 22 -13 -18 -23 -24\nright_child=2 -3 3 4 14 -7 9 12 -10 11 -12 13 -14 -15 15 -17 17 18 19 -21 -22 24 25 -25 -26 -27\nleaf_value=-0.4092424905672668 0.31844643621723384 0.076092173787765213 0.1298570290498901 0.049677205607295022 -0.010453484964776128 -0.54571631364524364 -0.15307736652592818 0.061514795670906695 0.29744032535701992 0.1151250611458506 0.020192065614422685 0.10006741024553774 -0.070157792551729548 -0.089119630660861732 -0.10886978681844015 -0.10601150217052135 0.10469668991863726 -0.15500648056085292 -0.015074843838810918 0.12158115927595646 0.091167915371410987 0.018076192121952769 0.050037923324853163 0.044029533024877311 -0.046557021098068134 0.0019842830579727892\nleaf_weight=10.000000000000002 12.999999999999998 15.999999999999998 15.000000000000002 10.000000000000002 17 10.999999999999998 14.999999999999998 15.000000000000002 9.9999999999999982 13.999999999999998 19 11.000000000000002 12.999999999999998 9.9999999999999982 12.999999999999998 18 13.000000000000002 12.999999999999998 10.000000000000002 10.999999999999998 17 11.000000000000002 10.000000000000002 15.999999999999998 12.999999999999998 9.9999999999999982\nleaf_count=10 13 16 15 10 17 11 15 15 10 14 19 11 13 10 13 18 13 13 10 11 17 11 10 16 13 10\ninternal_value=0 -0.201045 0.0159365 -0.00730074 -0.0759047 -0.476719 0.0542775 0.169226 0.357982 0.000363696 -0.102273 0.0445366 0.000692898 0.00904515 -0.010146 -0.0403564 -0.00426358 0.0357024 -0.0443016 0.10274 0.0733768 0.0401508 0.0950712 0.1295 -0.0307881 0.0472929\ninternal_weight=0 26 328 315 149 21 166 53 25 113 34 79 28 65 128 94 76 63 34 21 34 55 31 29 24 20\ninternal_count=354 26 328 315 149 21 166 53 25 113 34 79 28 65 128 94 76 63 34 21 34 55 31 29 24 20\nshrinkage=0.55\n\n\nTree=19\nnum_leaves=26\nnum_cat=0\nsplit_feature=10 10 5 6 4 10 6 9 5 4 11 8 6 0 9 11 4 4 9 11 5 5 9 4 10\nsplit_gain=1.00537 5.07171 3.93836 3.03066 2.21853 2.11526 0.830213 0.646576 0.903162 0.660843 1.07979 0.607047 0.552728 0.477423 0.426075 0.264918 0.25287 0.373133 0.215068 0.194897 0.19225 0.142006 0.122075 0.0960764 0.0826581\nthreshold=356.14000000000004 369.02000000000004 97.450000000000017 1.9071500000000003 5.9820000000000002 342.44000000000005 1.6283000000000001 15.250000000000002 52.400000000000006 7.1415000000000006 5.2000000000000011 222.50000000000003 1.9675500000000004 4.6013800000000007 19.900000000000002 7.6500000000000012 6.1410000000000009 6.4365000000000014 20.950000000000003 11.675000000000002 49.150000000000006 45.70000000000001 18.650000000000002 5.9230000000000009 393.89500000000004\ndecision_type=2 2 2 2 2 2 2 2 2 2 2 2 2 2 2 2 2 2 2 2 2 2 2 2 2\nleft_child=5 -2 3 -3 -4 6 -1 8 -5 10 -9 -12 -8 -14 15 21 18 -18 -16 20 -17 22 -13 -21 -22\nright_child=1 2 4 7 -6 -7 12 9 -10 -11 11 14 13 -15 16 19 17 -19 -20 23 24 -23 -24 -25 -26\nleaf_value=-0.15971639120951295 0.36447652659844609 0.28154564563122292 -0.054414706439193758 0.029382455510158945 -0.3463387894577214 -0.26923170189062756 0.097951292508514601 -0.11875645148375043 -0.17563411186520872 0.11960139539506702 0.14793326756916941 0.045022531020055913 0.044269802241275712 -0.090353132666581695 0.16169662490487094 -0.0051640371534679283 -0.058447262644767746 0.091801010975614203 0.05248451262098873 -0.014737228747751369 -0.051938433359776215 0.083742519510754704 -0.032403261121362451 0.04662448397049538 -0.1174091187864542\nleaf_weight=9.9999999999999982 11.999999999999998 12.999999999999998 18 13.000000000000002 13.999999999999998 11.999999999999998 15.999999999999998 18 12.999999999999998 18 10.999999999999998 14.000000000000002 14.999999999999998 17 10.000000000000002 19 10.000000000000002 9.9999999999999982 11.999999999999998 19 14.000000000000002 11.999999999999998 10.999999999999998 12.999999999999998 9.9999999999999982\nleaf_count=10 12 13 18 13 14 12 16 18 13 18 11 14 15 17 10 19 10 10 12 19 14 12 11 13 10\ninternal_value=0 0.0264576 -0.00161122 0.042327 -0.331148 -0.107342 -0.0282727 0.0154351 -0.132956 0.03463 0.016647 0.0420181 0.0263358 -0.049543 0.0258072 -0.00640333 0.111702 0.0303216 0.185684 -0.0405633 -0.0845389 0.0628398 0.0199185 0.018529 -0.144033\ninternal_weight=0 284 272 240 32 70 58 227 26 201 183 165 48 32 154 112 42 20 22 75 43 37 25 32 24\ninternal_count=354 284 272 240 32 70 58 227 26 201 183 165 48 32 154 112 42 20 22 75 43 37 25 32 24\nshrinkage=0.55\n\n\nTree=20\nnum_leaves=29\nnum_cat=0\nsplit_feature=3 0 6 4 3 11 3 5 5 6 9 8 4 4 9 11 10 11 2 5 9 2 5 5 11 3 2 4\nsplit_gain=0.648386 2.70929 1.71945 1.43428 1.43004 1.9227 0.696784 0.446433 0.771705 0.844071 0.479415 0.40008 1.46324 0.831684 0.822958 0.560689 0.499409 0.271334 0.298743 0.239548 0.162417 0.112023 0.199552 0.132687 0.120914 0.0935432 0.0298487 0.0211509\nthreshold=0.69650000000000001 3.6234500000000005 1.4577500000000003 7.8640000000000008 0.62750000000000006 18.930000000000003 0.71550000000000014 97.450000000000017 91.65000000000002 2.6191000000000004 19.900000000000002 228.50000000000003 6.9715000000000007 6.9715000000000007 16.950000000000003 4.7800000000000011 370.54500000000002 5.8950000000000005 4.1000000000000005 95.100000000000009 19.650000000000002 9.1250000000000018 73.15000000000002 70.350000000000009 7.5500000000000007 0.46200000000000008 5.910000000000001 5.9275000000000011\ndecision_type=2 2 2 2 2 2 2 2 2 2 2 2 2 2 2 2 2 2 2 2 2 2 2 2 2 2 2 2\nleft_child=2 -2 -1 4 7 -6 -3 8 9 10 -4 13 15 -11 -14 -13 -17 -18 -19 20 -10 22 24 25 -20 -23 -26 -28\nright_child=1 6 3 -5 5 -7 -8 -9 19 11 -12 12 14 -15 -16 16 17 18 21 -21 -22 23 -24 -25 26 -27 27 -29\nleaf_value=0.19091515143712362 -0.3141507863253355 -0.066876942375184684 0.20108875660225745 0.19477400798350575 -0.30488946987316007 0.020300291106104852 0.082076286535563051 0.092763836449012163 -0.16641126506205178 0.022053707508334453 0.038031840867673361 -0.13872933555394412 0.017794071113457897 -0.1889228225499392 0.22766089132772044 -0.11577915018424392 0.081697069309078746 -0.071758099808357664 0.053306143874159231 -0.018268400244414808 -0.069562877342104923 -0.02439584617968648 0.091605770494788893 -0.053625098156432315 0.014843933077063408 0.049103270447812972 -0.0033579042134806504 -0.03830738672986627\nleaf_weight=14.999999999999998 9.9999999999999982 19 10.000000000000002 10.999999999999998 11.000000000000002 10.999999999999998 19 15.999999999999998 10.000000000000002 13.000000000000002 11.999999999999998 9.9999999999999982 10.000000000000002 9.9999999999999982 12.999999999999998 10.999999999999998 12.999999999999998 15.999999999999998 12.999999999999998 11.999999999999998 10.999999999999998 10.000000000000002 10.999999999999998 14.999999999999998 10.000000000000002 10.999999999999998 10.000000000000002 10.999999999999998\nleaf_count=15 10 19 10 11 11 11 19 16 10 13 12 10 10 10 13 11 13 16 13 12 11 10 11 15 10 11 10 11\ninternal_value=0 -0.108058 0.0169502 -6.8772e-05 -0.0139839 -0.258717 0.0138176 0.00688485 -0.00381113 0.0186278 0.203907 -0.00316972 0.0141522 -0.126682 0.248026 -0.0239975 -0.00657481 0.012119 -0.0044555 -0.145924 -0.210329 0.0177008 0.0460867 -0.0256666 0.0159694 0.0256431 -0.0179778 -0.0393905\ninternal_weight=0 48 306 291 280 22 38 258 242 209 22 187 164 23 23 141 131 120 107 33 21 91 55 36 44 21 31 21\ninternal_count=354 48 306 291 280 22 38 258 242 209 22 187 164 23 23 141 131 120 107 33 21 91 55 36 44 21 31 21\nshrinkage=0.55\n\n\nTree=21\nnum_leaves=29\nnum_cat=0\nsplit_feature=4 9 0 0 0 6 11 10 0 9 10 11 11 6 0 6 11 4 1 10 10 6 5 10 3 11 4 11\nsplit_gain=1.13675 2.22894 0.972829 2.40687 4.44092 1.84574 0.573513 1.12148 0.78692 0.729 0.484506 0.828609 0.789406 0.591478 0.395596 0.391171 0.365021 0.228148 0.209941 0.163198 0.44977 0.132722 0.120444 0.165751 0.0439831 0.0397296 0.070992 0.0486462\nthreshold=7.3000000000000007 17.150000000000002 17.975650000000005 10.960800000000001 8.6807550000000013 1.8286500000000003 18.335000000000004 359.73000000000008 2.3739800000000004 19.900000000000002 392.17000000000007 4.7800000000000011 4.7800000000000011 2.6191000000000004 0.62547500000000011 2.0875500000000007 6.2400000000000011 5.947000000000001 15.000000000000002 378.17000000000002 388.29500000000007 6.8752500000000012 65.700000000000017 395.65500000000003 0.54100000000000015 7.5500000000000007 5.8795000000000011 9.9050000000000029\ndecision_type=2 2 2 2 2 2 2 2 2 2 2 2 2 2 2 2 2 2 2 2 2 2 2 2 2 2 2 2\nleft_child=2 -2 3 4 6 -5 7 15 9 -8 11 -9 -12 -14 18 -1 -15 -17 19 -13 -21 -20 25 24 -24 -18 -27 -28\nright_child=1 -3 -4 5 -6 -7 8 10 -10 -11 12 14 13 16 -16 17 22 -19 21 20 -22 -23 23 -25 -26 26 27 -29\nleaf_value=0.1943351682275534 0.037809784989804023 -0.26269298877034875 0.1512998220776873 -0.33217149879783381 0.34370952037473523 -0.0056883553485386077 0.10651897113188168 -0.18506666719913484 -0.17824714627737803 -0.094550943607464438 0.15832338705658913 -0.077450483478605753 0.095531081035733226 -0.088949881901498898 -0.10323237092905822 0.0012761912494897837 0.0098404557687380104 0.10852563260744016 0.093410125663503971 0.08275313405126021 -0.056319588162552787 0.0038016958953812721 0.032916205067886034 -0.025345783414377356 0.084500850291806276 0.0094662638807979718 -0.064903487667190618 -0.013878891477361323\nleaf_weight=9.9999999999999982 16.000000000000004 13.999999999999998 13.999999999999998 11.000000000000002 11.999999999999998 9.9999999999999982 10.000000000000002 9.9999999999999982 11.999999999999998 11.999999999999998 10.999999999999998 10.999999999999998 18 15.999999999999998 12.999999999999998 10.000000000000002 13.999999999999998 14.999999999999998 10.000000000000002 12.000000000000002 17 9.9999999999999982 10.000000000000002 11.000000000000002 9.9999999999999982 11.999999999999998 13.000000000000002 9.9999999999999982\nleaf_count=10 16 14 14 11 12 10 10 10 12 12 11 11 18 16 13 10 14 15 10 12 17 10 10 11 10 12 13 10\ninternal_value=0 -0.186227 0.0172432 0.00559852 0.0293509 -0.321279 0.00354974 0.0205701 -0.118096 -0.00573732 -0.00729727 -0.0665262 0.0320307 0.00734538 -0.0295455 0.186182 -0.0238448 0.11932 0.00472023 -0.0371069 0.00223226 0.0883744 0.00373169 0.0525142 0.106743 -0.0271307 -0.0451397 -0.0776707\ninternal_weight=0 30 324 310 289 21 277 243 34 22 208 83 125 114 73 35 96 25 60 40 29 20 80 31 20 49 35 23\ninternal_count=354 30 324 310 289 21 277 243 34 22 208 83 125 114 73 35 96 25 60 40 29 20 80 31 20 49 35 23\nshrinkage=0.55\n\n\nTree=22\nnum_leaves=29\nnum_cat=0\nsplit_feature=0 6 3 5 4 0 6 9 6 3 11 5 0 0 11 0 11 11 9 4 4 4 11 9 4 0 5 2\nsplit_gain=0.796506 2.77258 1.10415 1.48821 1.08732 2.1178 0.931312 0.517362 0.445677 0.395442 0.33274 0.319246 0.210808 0.357903 0.394048 0.373728 0.156154 0.148018 0.166889 0.182668 0.113619 0.100041 0.0950968 0.085927 0.0718478 0.0614546 0.0432939 0.0242589\nthreshold=9.2855950000000025 1.6283000000000001 0.70650000000000002 89.450000000000017 7.6275000000000004 0.29025000000000006 1.5145000000000002 14.750000000000002 1.9675500000000004 0.61150000000000004 24.275000000000002 96.800000000000026 0.032715000000000008 0.065270000000000009 5.285000000000001 0.078910000000000022 6.0150000000000015 5.2000000000000011 18.100000000000005 5.7030000000000003 6.017500000000001 5.947000000000001 7.5500000000000007 20.150000000000002 6.0820000000000016 0.26600500000000005 64.90000000000002 9.7950000000000017\ndecision_type=2 2 2 2 2 2 2 2 2 2 2 2 2 2 2 2 2 2 2 2 2 2 2 2 2 2 2 2\nleft_child=1 -1 4 -4 7 -6 -2 -3 10 11 -8 12 16 14 -14 -15 -9 -17 20 -20 -19 25 -16 24 -23 -21 -22 -26\nright_child=6 2 3 -5 5 -7 8 9 -10 -11 -12 -13 13 15 22 17 -18 18 19 21 26 23 -24 -25 27 -27 -28 -29\nleaf_value=0.22587566296843925 -0.19957521478257453 -0.092872991428400081 -0.26371137881651513 0.029450664753094317 -0.048755674064159385 0.30919213317334654 0.098640954233705974 0.099458426609635331 -0.11104327348293737 0.082214846048090193 -0.037201621647303305 -0.098608191553503283 -0.1441637344658375 0.10646226815879346 0.019726525204411392 0.06527452304959297 0.0044957009889185435 0.015751236248761416 -0.056718773115426308 0.074003414859851957 -0.023529858631081875 -0.050860714069567603 -0.042813645772586922 0.035285706908649045 0.023605028726160521 0.018146451562643051 -0.068665440302963066 -0.013824253715574742\nleaf_weight=17 11.999999999999998 18 11.000000000000002 9.9999999999999982 10.000000000000002 9.9999999999999982 10.000000000000002 11.000000000000002 10.999999999999998 18 11.999999999999998 9.9999999999999982 9.9999999999999982 10.999999999999998 12.000000000000002 9.9999999999999982 9.9999999999999982 9.9999999999999982 10.999999999999998 13.000000000000002 10.000000000000002 10.000000000000002 19 18 11.000000000000002 10.999999999999998 18 9.9999999999999982\nleaf_count=17 12 18 11 10 10 10 10 11 11 18 12 10 10 11 12 10 10 10 11 13 10 10 19 18 11 11 18 10\ninternal_value=0 0.0181017 -0.00475403 -0.225655 0.0123638 0.23676 -0.124299 -0.00551644 -0.0375474 0.00710238 0.0446273 -0.00481774 0.00369299 -0.00714047 -0.0895068 0.0164751 0.0986147 0.00171733 -0.00786985 0.0170064 -0.0628595 0.0351084 -0.0338264 0.00920031 -0.0227093 0.0880042 -0.0955374 0.0105119\ninternal_weight=0 309 292 21 271 20 45 251 33 233 22 215 205 184 41 143 21 132 122 84 38 73 31 49 31 24 28 21\ninternal_count=354 309 292 21 271 20 45 251 33 233 22 215 205 184 41 143 21 132 122 84 38 73 31 49 31 24 28 21\nshrinkage=0.55\n\n\nTree=23\nnum_leaves=27\nnum_cat=0\nsplit_feature=4 5 6 6 3 4 0 5 3 9 10 0 2 10 2 5 4 6 0 0 0 0 8 4 5 7\nsplit_gain=0.732977 2.03688 1.24742 0.438463 0.588356 0.757789 0.881247 0.744285 0.526122 0.326649 0.16859 0.5398 0.221586 0.159791 0.138082 0.238986 0.140624 0.11268 0.201553 0.170038 0.0793218 0.134849 0.0890895 0.0734796 0.0504774 0.0397502\nthreshold=7.3000000000000007 63.050000000000004 1.3989500000000004 2.1052500000000003 0.66350000000000009 5.5255000000000001 9.5546700000000016 97.800000000000026 0.61900000000000011 15.050000000000002 393.38000000000005 0.39468500000000006 2.9200000000000004 394.17500000000007 2.3850000000000002 29.750000000000004 5.8550000000000013 3.6589000000000005 0.039015000000000008 0.088275000000000006 0.8462900000000001 0.16947000000000004 312.00000000000006 6.3225000000000007 50.45000000000001 4.5000000000000009\ndecision_type=2 2 2 2 2 2 2 2 2 2 2 2 2 2 2 2 2 2 2 2 2 2 2 2 2 2\nleft_child=2 -2 -1 4 7 -6 -7 -4 9 -5 14 12 -12 -14 -11 25 -17 -15 -19 -20 21 22 -18 -10 -21 -16\nright_child=1 -3 3 8 5 6 -8 -9 23 10 11 -13 13 17 15 16 20 18 19 24 -22 -23 -24 -25 -26 -27\nleaf_value=0.18965800758451226 0.10610312223434445 -0.19129123362271411 -0.030444704346797042 0.092224740741464001 0.098603171622380623 -0.16546452494027711 0.024917111181237392 -0.21954386435449125 0.056824526190757743 -0.075017763674259191 0.073796487879008055 0.12986596035771072 0.048793236426233011 -0.055945380382533924 0.067890985095873449 0.024883782655732444 -0.026895843909329007 -0.067264438517546904 0.068408931155378633 -0.037023545530003796 -0.076355105754919356 0.010997106288171684 -0.091642685886472466 0.11790238789354379 0.014557240414433183 0.018851358480751514\nleaf_weight=10.999999999999998 11.000000000000002 19 17.000000000000004 11.999999999999998 15.999999999999998 12.000000000000002 19 9.9999999999999982 11.000000000000002 10.999999999999998 10.999999999999998 10.999999999999998 11.999999999999998 19 10.000000000000002 13.999999999999998 18.000000000000004 11.999999999999998 11.999999999999998 12.000000000000002 11.999999999999998 18 9.9999999999999982 12.999999999999998 10.999999999999998 9.9999999999999982\nleaf_count=11 11 19 17 12 16 12 19 10 11 11 11 11 12 19 10 14 18 12 12 12 12 18 10 13 11 10\ninternal_value=0 -0.149539 0.0138462 0.00221412 -0.0650491 0.00253391 -0.0886891 -0.182694 0.0230404 0.00736454 -0.00211231 0.027135 0.00130539 -0.0174327 -0.0305078 -0.0178472 -0.0447094 -0.0367323 -0.0104611 0.0278833 -0.0664221 -0.0475338 -0.0909449 0.16347 -0.0224627 0.0788567\ninternal_weight=0 30 324 313 74 47 31 27 239 215 203 100 89 78 103 92 72 66 47 35 58 46 28 24 23 20\ninternal_count=354 30 324 313 74 47 31 27 239 215 203 100 89 78 103 92 72 66 47 35 58 46 28 24 23 20\nshrinkage=0.55\n\n\nTree=24\nnum_leaves=27\nnum_cat=0\nsplit_feature=11 3 10 6 4 6 11 4 5 3 6 6 11 10 1 10 9 10 11 5 4 0 0 8 0 10\nsplit_gain=0.865569 0.844432 1.63196 1.46642 1.45858 0.375952 0.239141 0.604866 0.188339 0.131172 0.184063 0.188153 0.17042 0.138683 0.112235 0.119439 0.155001 0.0847541 0.203457 0.0815895 0.107293 0.089177 0.07352 0.0411776 0.0295173 0.0245383\nthreshold=3.2100000000000004 0.71550000000000014 342.44000000000005 1.3989500000000004 7.7280000000000006 1.6283000000000001 4.7800000000000011 7.1415000000000006 98.850000000000009 0.6070000000000001 2.3367000000000004 2.6191000000000004 18.930000000000003 333.24500000000006 72.500000000000014 370.54500000000002 20.550000000000001 390.66000000000003 6.0150000000000015 33.400000000000006 5.7865000000000011 0.088275000000000006 0.11793500000000003 309.00000000000006 0.22350500000000004 395.65500000000003\ndecision_type=2 2 2 2 2 2 2 2 2 2 2 2 2 2 2 2 2 2 2 2 2 2 2 2 2 2\nleft_child=-1 3 -3 -2 5 -5 -7 8 9 10 -8 -12 13 -11 15 -13 17 22 -19 -20 -21 25 -17 24 -23 -22\nright_child=1 2 -4 4 -6 6 7 -9 -10 12 11 14 -14 -15 -16 16 -18 18 19 20 21 23 -24 -25 -26 -27\nleaf_value=-0.14518920419116815 0.2206378439674154 0.050360603151576852 -0.2107389759893219 -0.083454696577973664 0.18680676015523764 0.062806147787916031 -0.051120715521069039 -0.12731507050339133 -0.069384965710341945 0.11058526244014498 0.062269335974226986 -0.053086923582192802 -0.025105225369334225 0.030565740859234022 0.05256824358342177 0.047198010849024287 0.064683183142915365 -0.078825039697888635 -0.038472237574557464 0.058925235876813538 0.045310677820816624 -0.025625976493868687 -0.0047463124946636312 -0.049890809049829843 0.013085371535271407 0.0067805721051990989\nleaf_weight=11.999999999999998 9.9999999999999982 14.000000000000002 14.999999999999998 15.999999999999998 12.999999999999998 19 18 10.999999999999998 9.9999999999999982 10.000000000000002 17 12.999999999999998 9.9999999999999982 19 11.999999999999998 15.999999999999998 10.999999999999998 11.999999999999998 14.999999999999998 9.9999999999999982 10.000000000000002 13.000000000000002 17 9.9999999999999982 10.999999999999998 9.9999999999999982\nleaf_count=12 10 14 15 16 13 19 18 11 10 10 17 13 10 19 12 16 11 12 15 10 10 13 17 10 11 10\ninternal_value=0 0.00926247 -0.153983 0.0243875 0.0119528 -0.00273705 0.00596361 -0.00210054 0.00824042 0.0139838 0.00339548 0.013193 0.0669254 0.105743 0.00256544 -0.00497617 0.00383933 -0.00625286 -0.0219965 -0.0035679 0.0119903 -0.00562943 0.0371615 -0.0367971 -0.0143332 0.0473557\ninternal_weight=0 342 29 313 303 290 274 255 244 234 195 177 39 29 160 148 135 124 91 79 64 54 33 34 24 20\ninternal_count=354 342 29 313 303 290 274 255 244 234 195 177 39 29 160 148 135 124 91 79 64 54 33 34 24 20\nshrinkage=0.55\n\n\nTree=25\nnum_leaves=26\nnum_cat=0\nsplit_feature=11 11 5 5 6 4 4 11 11 3 4 3 3 4 2 0 6 4 6 10 8 1 6 11 11\nsplit_gain=0.571756 1.66813 1.77593 1.20391 0.528058 0.434685 0.429454 0.801548 0.184858 0.282491 0.176856 0.255402 0.151782 0.454543 0.200903 0.192885 0.140804 0.0962327 0.0691498 0.0751348 0.0534795 0.0435147 0.0151445 0.014389 0.0156735\nthreshold=28.685000000000006 23.315000000000001 99.450000000000017 97.800000000000026 1.7679500000000001 7.8110000000000008 7.1415000000000006 4.7800000000000011 5.0700000000000012 0.44245000000000007 5.8755000000000015 0.58050000000000013 0.58200000000000007 6.1790000000000012 2.5700000000000007 6.5968400000000011 4.2040000000000006 6.6985000000000001 2.6890500000000004 385.52500000000003 336.00000000000006 20.500000000000004 3.5949000000000004 7.6500000000000012 12.335000000000003\ndecision_type=2 2 2 2 2 2 2 2 2 2 2 2 2 2 2 2 2 2 2 2 2 2 2 2 2\nleft_child=1 2 4 -3 -1 6 8 -8 9 -6 11 16 14 -14 -12 -15 -10 18 -16 -20 21 22 -21 -24 -25\nright_child=-2 3 -4 -5 5 -7 7 -9 10 -11 12 -13 13 15 17 -17 -18 -19 19 20 -22 -23 23 24 -26\nleaf_value=-0.10790258556621017 0.10892856604020512 -0.037144827197950619 0.1844456522841938 -0.29097974130883808 -0.1048496489485842 -0.086603016016306364 0.19535054902778934 -0.015487095271237195 0.047547874757303633 0.020316197760403155 0.061498840692365782 -0.081631269614445057 0.11472100145183504 0.035232853015665616 -0.045783268601475621 -0.058236747980117805 -0.027569900129714775 0.038745151034423289 -0.036161376017844304 0.017796832573815032 -0.028568698215083437 0.036009919091593477 0.011875065951608123 -0.028569167573004952 0.00091348697314970202\nleaf_weight=13.999999999999998 13.999999999999998 13 15.999999999999998 10 12.000000000000002 15.999999999999998 10.000000000000002 11.999999999999998 13.000000000000002 9.9999999999999982 15.999999999999998 15.999999999999998 15.999999999999998 17.000000000000004 13.999999999999998 10.999999999999998 18 13.999999999999998 18 12.999999999999998 12.999999999999998 14.999999999999998 10.999999999999998 10.000000000000002 11.999999999999998\nleaf_count=14 14 13 16 10 12 16 10 12 13 10 16 16 16 17 14 11 18 14 18 13 13 15 11 10 12\ninternal_value=0 -0.00815508 0.0107122 -0.268196 -0.00654455 0.00270628 0.0121626 0.146088 0.000329856 -0.0871929 0.00881224 -0.0458118 0.0230752 0.0741277 0.0065582 -0.00270427 0.00714746 -0.00747618 -0.0177678 -0.00780424 0.00629018 0.0187006 0.0034488 -0.00793962 -0.0227049\ninternal_weight=0 340 317 23 301 287 271 22 249 22 227 47 180 44 136 28 31 120 106 92 74 61 46 33 22\ninternal_count=354 340 317 23 301 287 271 22 249 22 227 47 180 44 136 28 31 120 106 92 74 61 46 33 22\nshrinkage=0.55\n\n\nTree=26\nnum_leaves=29\nnum_cat=0\nsplit_feature=11 7 0 6 6 3 4 10 10 10 0 4 10 10 3 6 4 9 2 7 6 6 4 9 11 6 6 0\nsplit_gain=0.683237 0.899011 0.725593 3.10163 1.46264 0.470471 1.12117 0.923284 0.374304 0.274066 0.242569 0.188722 0.144787 0.219555 0.14351 0.106517 0.164904 0.148902 0.144983 0.0896033 0.0894063 0.196183 0.108054 0.0516874 0.0379623 0.0372821 0.0226967 0.0202686\nthreshold=3.7850000000000006 4.5000000000000009 9.2855950000000025 1.7269000000000003 1.5145000000000002 0.68600000000000005 7.6275000000000004 363.66500000000002 45.75500000000001 290.27000000000004 0.52036000000000016 5.9230000000000009 388.29500000000007 394.65000000000003 0.58200000000000007 5.7265000000000006 6.8455000000000004 16.500000000000004 3.5400000000000005 2.5000000000000004 2.6191000000000004 2.8315000000000006 6.6295000000000011 18.350000000000005 11.675000000000002 6.7277000000000013 4.2547000000000006 0.10187000000000002\ndecision_type=2 2 2 2 2 2 2 2 2 2 2 2 2 2 2 2 2 2 2 2 2 2 2 2 2 2 2 2\nleft_child=1 -1 3 -2 -4 6 9 -7 -6 -5 15 -10 14 -14 -12 17 18 -11 -17 -19 -21 -22 23 -23 26 -20 -25 -27\nright_child=2 -3 4 5 8 7 -8 -9 11 10 12 -13 13 -15 -16 16 -18 19 25 20 21 22 -24 24 -26 27 -28 -29\nleaf_value=0.027928397199138991 0.23113844181950155 -0.19535986073315145 -0.22314847875386479 0.089256581012159594 0.083918432425707595 -0.17068190595421651 0.17984178513288501 0.051609416035935288 0.01060079392045736 0.078953927867114554 -0.054142112525490407 -0.091279944317648187 -0.13260059623164122 -0.017348302938044072 0.030918558718015753 -0.070661730039864784 0.044241108302958312 -0.034023522786222976 -0.031319766732243202 0.049571771231583427 -0.061506120162084704 0.036281908077320887 0.06503164180418633 -0.032304050801515882 0.020817263623965642 0.02503112132661044 -0.00021257941029034557 -0.0091816367581486723\nleaf_weight=10.000000000000002 19 11.999999999999998 11.999999999999998 9.9999999999999982 10.999999999999998 13.000000000000002 10.999999999999998 9.9999999999999982 11.000000000000002 9.9999999999999982 12.000000000000002 10.999999999999998 10.000000000000002 9.9999999999999982 11.999999999999998 15.999999999999998 11.999999999999998 12.999999999999998 11.999999999999998 18 10.999999999999998 13.999999999999998 11.999999999999998 12.000000000000002 13.999999999999998 10.000000000000002 14.999999999999998 10.999999999999998\nleaf_count=10 19 12 12 10 11 13 11 10 11 10 12 11 10 10 12 16 12 13 12 18 11 14 12 12 14 10 15 11\ninternal_value=0 -0.170664 0.0113091 0.0298206 -0.106754 0.0021408 0.0149783 -0.134606 0.0019632 0.000311303 -0.00691965 -0.0733447 -0.0734782 -0.136317 -0.0211123 0.00935021 -0.0246265 0.0267668 -0.0503566 0.0160525 0.0266033 0.0119432 0.0322641 0.0135058 -0.00440779 -0.0124807 -0.026319 0.0129276\ninternal_weight=0 22 332 287 45 268 245 23 33 234 224 22 44 20 24 180 61 119 49 109 96 78 67 55 41 33 27 21\ninternal_count=354 22 332 287 45 268 245 23 33 234 224 22 44 20 24 180 61 119 49 109 96 78 67 55 41 33 27 21\nshrinkage=0.55\n\n\nTree=27\nnum_leaves=28\nnum_cat=0\nsplit_feature=4 6 5 10 6 6 4 0 11 11 2 5 8 11 10 0 9 4 6 5 4 10 10 3 10 5 2\nsplit_gain=0.426696 1.44516 1.08677 2.84493 0.77059 0.435536 1.04616 0.29444 0.959525 0.873852 0.262148 0.164895 0.137495 0.185995 0.1443 0.107208 0.0936724 0.0729041 0.0646863 0.126817 0.107912 0.0935431 0.0916388 0.0756068 0.0610927 0.0246958 0.0243256\nthreshold=5.4130000000000011 1.5313500000000002 99.450000000000017 386.51500000000004 1.6634000000000002 1.8200500000000002 7.8640000000000008 0.059135000000000007 4.4750000000000005 4.6800000000000006 2.5700000000000007 38.250000000000007 302.00000000000006 7.410000000000001 82.390000000000015 0.21550500000000003 16.050000000000004 6.5025000000000004 2.8823500000000002 95.350000000000009 6.1635000000000009 370.54500000000002 395.61000000000007 0.50550000000000017 395.87000000000006 53.650000000000013 10.300000000000002\ndecision_type=2 2 2 2 2 2 2 2 2 2 2 2 2 2 2 2 2 2 2 2 2 2 2 2 2 2 2\nleft_child=1 -1 4 -4 -2 -6 7 8 -7 -9 -11 17 13 -12 -14 25 -16 -10 19 20 -18 -20 23 -23 -13 -15 -27\nright_child=2 -3 3 -5 5 6 -8 9 11 10 12 24 14 15 16 -17 18 -19 21 -21 -22 22 -24 -25 -26 26 -28\nleaf_value=-0.2318407464772462 -0.15307406436651946 0.034689776808954777 0.3194388501346111 -0.085893893072025093 0.10059511785467083 -0.17639307565987114 -0.16865197774022819 0.15819347452682753 0.0080189479371676059 0.09218183290213347 -0.07435452756471933 -0.0062404590222286064 -0.04030800278608998 0.0041221592994406826 -0.029093306987003114 0.046701454804278911 0.081430815410261093 0.068857147451490172 -0.038873103950172662 -0.012735145795159043 0.022812107512972465 0.0052134397982930153 -0.021501587762031708 0.057448259584213561 -0.061040890719741565 -0.047130398778244841 -0.010552979120984674\nleaf_weight=10.000000000000002 9.9999999999999982 15.999999999999998 11.000000000000002 9.9999999999999982 12.999999999999998 10.999999999999998 10.999999999999998 11.999999999999998 13.000000000000002 9.9999999999999982 14.999999999999998 15.999999999999998 14.999999999999998 9.9999999999999982 11.999999999999998 9.9999999999999982 19 10.999999999999998 9.9999999999999982 11.999999999999998 19 14.999999999999998 11.999999999999998 19 10.000000000000002 11.000000000000002 10.999999999999998\nleaf_count=10 10 16 11 10 13 11 11 12 13 10 15 16 15 10 12 10 19 11 10 12 19 15 12 19 10 11 11\ninternal_value=0 -0.123313 0.00977478 0.22986 -0.00527994 0.00391321 -0.00427985 0.00790315 -0.0533206 0.0255194 0.00979311 0.00550613 0.00148731 -0.0396044 0.0190981 -0.00546671 0.0308419 0.0652784 0.0403218 0.0664652 0.0947663 0.0169795 0.0360356 0.0625518 -0.0496683 -0.03371 -0.0524394\ninternal_weight=0 26 328 21 307 297 284 273 61 212 200 50 190 57 133 42 118 24 106 50 38 56 46 34 26 32 22\ninternal_count=354 26 328 21 307 297 284 273 61 212 200 50 190 57 133 42 118 24 106 50 38 56 46 34 26 32 22\nshrinkage=0.55\n\n\nTree=28\nnum_leaves=29\nnum_cat=0\nsplit_feature=0 0 0 5 5 3 6 6 5 10 9 4 8 11 11 10 11 4 4 11 9 3 10 8 11 11 5 2\nsplit_gain=0.447837 0.909823 1.38769 1.07926 0.956437 0.446599 1.09309 0.633656 0.317654 0.186616 0.23438 0.216789 0.183121 0.148524 0.154407 0.0994089 0.0960153 0.0885356 0.0543824 0.037509 0.0344676 0.0416476 0.0227618 0.0580923 0.0392309 0.0173481 0.00884962 0.00689104\nthreshold=17.975650000000005 10.014420000000003 7.7121250000000012 99.450000000000017 96.40000000000002 0.63900000000000012 1.8687500000000001 1.9372500000000001 87.950000000000017 379.16500000000002 15.050000000000002 6.9450000000000012 222.50000000000003 4.4750000000000005 5.2000000000000011 393.08500000000009 7.9750000000000014 6.6560000000000015 5.8455000000000004 10.925000000000002 19.150000000000002 0.50150000000000017 394.17500000000007 322.00000000000006 7.410000000000001 13.395000000000001 90.15000000000002 6.660000000000001\ndecision_type=2 2 2 2 2 2 2 2 2 2 2 2 2 2 2 2 2 2 2 2 2 2 2 2 2 2 2 2\nleft_child=1 2 3 5 -3 7 -7 -1 -8 11 -11 20 -12 -14 -15 16 -16 18 -17 -18 21 -9 -20 24 -24 -21 -22 -26\nright_child=-2 4 -4 -5 -6 6 8 9 -10 10 12 -13 13 14 15 17 19 -19 22 25 26 -23 23 -25 27 -27 -28 -29\nleaf_value=-0.14133479500655086 0.0929984023802293 -0.01454715309664607 0.16700593699390689 -0.17350294087082149 -0.23725338975898919 0.21406976592261345 -0.077635203916579465 0.02392658322118222 0.055092101443248498 -0.079508656517674151 0.055143851386383183 0.097195548191666606 -0.064754034808048838 0.062554077864624566 -0.061584924818838351 -0.033069116252590902 0.013873117692613355 0.044546612101392109 0.024389701200804362 -0.041220883047208175 0.016163381778169419 -0.022546271534104434 0.037907139887101947 -0.028484907066997363 0.0063215894839511455 -0.0088239862222690146 0.039302131214644764 -0.012882658941671253\nleaf_weight=9.9999999999999982 14.999999999999998 14 14.999999999999998 10.999999999999998 10 9.9999999999999982 10.000000000000002 10.000000000000002 11.999999999999998 12.999999999999998 14.999999999999998 10.999999999999998 12.999999999999998 9.9999999999999982 17 15.999999999999998 11.999999999999998 12.999999999999998 11.999999999999998 10.000000000000002 10.000000000000002 13.999999999999998 10.999999999999998 17 13.000000000000002 9.9999999999999982 9.9999999999999982 9.9999999999999982\nleaf_count=10 15 14 15 11 10 10 10 10 12 13 15 11 13 10 17 16 12 13 12 10 10 14 11 17 13 10 10 10\ninternal_value=0 -0.00748177 0.006818 -0.00802346 -0.195166 0.00367827 0.115082 -0.0101931 -0.00952453 -0.000201999 -0.0149135 0.0511545 -0.00549775 -0.0151709 -0.00634086 -0.0148569 -0.0512399 0.00452106 -0.00806307 -0.0189756 0.0197634 -0.00578651 0.00515918 -0.00406099 0.0198039 -0.0454953 0.0504232 -0.00368742\ninternal_weight=0 339 315 300 24 289 32 257 22 247 192 55 179 164 151 141 49 92 79 32 44 24 63 51 34 20 20 23\ninternal_count=354 339 315 300 24 289 32 257 22 247 192 55 179 164 151 141 49 92 79 32 44 24 63 51 34 20 20 23\nshrinkage=0.55\n\n\nTree=29\nnum_leaves=30\nnum_cat=0\nsplit_feature=3 6 0 4 0 0 6 9 10 4 11 0 5 11 0 5 4 11 0 6 3 4 8 2 11 9 5 11 3\nsplit_gain=0.59494 1.32072 1.12064 0.661297 0.508142 0.996164 0.299671 0.17666 0.834376 0.235455 0.161674 0.600667 0.273439 0.166594 0.107992 0.102163 0.158534 0.251233 0.119779 0.0970184 0.0776076 0.0767673 0.0762364 0.0630191 0.0171551 0.0158658 0.00929476 0.0286857 0.0112404\nthreshold=0.67500000000000016 1.4222500000000002 3.6234500000000005 7.8640000000000008 8.1761600000000012 10.014420000000003 1.7997000000000003 14.750000000000002 388.29500000000007 7.2235000000000005 14.730000000000002 1.2421300000000002 97.950000000000017 18.095000000000002 0.029420000000000005 81.65000000000002 6.9450000000000012 5.3600000000000003 0.16947000000000004 2.8823500000000002 0.57400000000000007 6.2695000000000007 309.00000000000006 3.5400000000000005 10.595000000000002 18.650000000000002 29.000000000000004 7.2300000000000013 0.44850000000000007\ndecision_type=2 2 2 2 2 2 2 2 2 2 2 2 2 2 2 2 2 2 2 2 2 2 2 2 2 2 2 2 2\nleft_child=1 -1 -2 7 21 -6 -7 8 -3 10 11 14 13 20 -9 16 17 -16 -17 -19 -12 -4 -15 -21 26 -26 -25 -28 -29\nright_child=2 3 4 -5 5 6 -8 9 -10 -11 12 -13 -14 22 15 18 -18 19 -20 23 -22 -23 -24 24 25 -27 27 28 -30\nleaf_value=0.18924169968813659 -0.21711915228515866 0.060057009677402656 0.073132078908383844 0.13504007607698443 -0.20550829080864783 0.074311124999076106 -0.057241184823215011 -0.052313861895042169 -0.1646200015814975 0.073506824091936526 0.0076242492209920376 -0.12948155719786883 0.096826499816961592 4.705792292952536e-05 -0.064780042332907531 -0.066899033883013395 0.065688077797396827 0.060261187702417375 0.0093019187850586615 -0.029877374446592653 0.071063277916982776 0.0090343060949817314 -0.067866888381540785 0.0044788795666625874 -0.012598559659506592 0.015314206911716611 0.045258804061450067 0.024835788174823386 0.002567738449033641\nleaf_weight=11.999999999999998 9.9999999999999982 10.000000000000002 13.000000000000002 10.999999999999998 10.000000000000002 10.000000000000002 10.999999999999998 11.999999999999998 9.9999999999999982 12.999999999999998 14.000000000000002 11.999999999999998 11.999999999999998 10.000000000000002 14.999999999999998 13.000000000000002 12.999999999999998 10.999999999999998 11.999999999999998 12.999999999999998 9.9999999999999982 9.9999999999999982 9.9999999999999982 12.999999999999998 14.000000000000002 10.999999999999998 10.999999999999998 12.000000000000002 15.999999999999998\nleaf_count=12 10 10 13 11 10 10 11 12 10 13 14 12 12 10 15 13 13 11 12 13 10 10 10 13 14 11 11 12 16\ninternal_value=0 0.0192587 -0.0872658 0.00523777 -0.030322 -0.113878 0.00982322 -0.0046618 -0.0950573 0.00265767 -0.00461961 -0.019363 0.0422432 0.00575099 -0.00374433 0.00337555 0.0147142 0.0029785 -0.055132 0.0209132 0.0619221 0.0822972 -0.0616544 0.0100779 0.0209507 -0.000576259 0.0313002 0.0390191 0.0220203\ninternal_weight=0 290 64 278 54 31 21 267 20 247 234 178 56 44 166 154 129 116 25 101 24 23 20 90 77 25 52 39 28\ninternal_count=354 290 64 278 54 31 21 267 20 247 234 178 56 44 166 154 129 116 25 101 24 23 20 90 77 25 52 39 28\nshrinkage=0.55\n\n\nTree=30\nnum_leaves=30\nnum_cat=0\nsplit_feature=0 6 3 3 11 4 6 0 3 10 5 3 10 11 1 4 2 0 0 0 10 5 4 4 6 3 0 2 11\nsplit_gain=0.40234 0.483257 0.492789 0.251029 0.294104 0.189295 0.175287 0.158659 0.223828 0.206333 0.141502 0.34536 0.141379 0.131038 0.135091 0.447403 0.171415 0.101468 0.0902409 0.0806893 0.0549925 0.0470719 0.0465514 0.0586868 0.0392055 0.0188424 0.0368075 0.0183092 0.00499697\nthreshold=19.210050000000006 1.4222500000000002 0.75500000000000012 0.67500000000000016 16.215000000000003 6.4585000000000008 1.9791500000000002 1.5076700000000003 0.57400000000000007 392.79000000000002 75.500000000000014 0.50550000000000017 373.67500000000007 3.5650000000000004 15.000000000000002 7.0115000000000007 3.3500000000000005 9.5546700000000016 0.044530000000000007 0.078910000000000022 379.16500000000002 33.400000000000006 6.488500000000001 5.9820000000000002 3.3942500000000004 0.50550000000000017 0.17308500000000002 10.300000000000002 6.7550000000000017\ndecision_type=2 2 2 2 2 2 2 2 2 2 2 2 2 2 2 2 2 2 2 2 2 2 2 2 2 2 2 2 2\nleft_child=1 -1 3 6 -5 17 -3 8 10 -10 13 -12 -9 -8 16 18 -15 -6 21 -20 -18 -16 23 -13 -22 26 27 -26 -21\nright_child=-2 2 -4 4 5 -7 7 12 9 -11 11 22 -14 14 15 -17 20 -19 19 28 24 -23 -24 -25 25 -27 -28 -29 -30\nleaf_value=0.11688451021909714 -0.098987476046507566 0.052822666737790173 0.11416534031741322 -0.12595803208649159 -0.081841861821400602 0.040621156292036185 0.065246242471039301 0.0080448010716483824 -0.10805420787849772 -0.0010829068440943957 -0.10760788274540878 0.014662166921022748 0.089608790965285165 0.085772056745772721 0.061927613336592892 -0.10674223999152534 0.044128815678413966 -0.0068269861582666647 -0.049836308881640423 0.017503565214574333 -0.029619627998908982 0.01083427274619074 0.030945960280951115 -0.03281748486883266 0.027889399781885836 0.027114606958154281 -0.024402825953438879 -0.0034138842928223318 0.00011631055735051633\nleaf_weight=10.999999999999998 11.999999999999998 19 10.999999999999998 9.9999999999999982 12.000000000000002 10.999999999999998 10.999999999999998 18.000000000000004 12.000000000000002 9.9999999999999982 11.999999999999998 13.999999999999998 9.9999999999999982 9.9999999999999982 10.000000000000002 12.999999999999998 10.999999999999998 9.9999999999999982 11.000000000000002 10.000000000000002 9.9999999999999982 11.999999999999998 9.9999999999999982 18 13.000000000000002 11.999999999999998 10.999999999999998 9.9999999999999982 9.9999999999999982\nleaf_count=11 12 19 11 10 12 11 11 18 12 10 12 14 10 10 10 13 11 10 11 10 10 12 10 18 13 12 11 10 10\ninternal_value=0 0.00631499 -0.000537654 -0.00769147 -0.0787789 -0.0332529 0.00334376 -0.0034828 -0.0121352 -0.108056 -0.00198972 -0.0460363 0.0675905 0.0134552 0.00536486 -0.0278337 0.0338208 -0.0868076 0.0129429 -0.0218182 0.0155926 0.0619246 -0.00328938 -0.0219002 0.00289517 0.0152319 0.00320814 0.0259623 0.0160181\ninternal_weight=0 342 331 320 43 33 277 258 230 22 208 54 28 154 143 66 77 22 53 31 67 22 42 32 56 46 34 23 20\ninternal_count=354 342 331 320 43 33 277 258 230 22 208 54 28 154 143 66 77 22 53 31 67 22 42 32 56 46 34 23 20\nshrinkage=0.55\n\n\nTree=31\nnum_leaves=27\nnum_cat=0\nsplit_feature=9 4 11 0 4 5 0 6 4 11 11 8 11 3 6 3 3 11 11 6 10 6 1 4 2 3\nsplit_gain=0.342711 0.377627 1.06159 0.38205 0.481241 0.693999 0.658972 0.344612 0.353845 0.107977 0.127999 0.0626928 0.0613086 0.0595859 0.116163 0.0784637 0.0422153 0.0283604 0.0422316 0.0293283 0.028984 0.0224738 0.0291245 0.0188146 0.0253893 0.0101865\nthreshold=13.300000000000002 7.3000000000000007 4.0150000000000015 17.975650000000005 5.4130000000000011 99.450000000000017 3.2423250000000006 1.8687500000000001 5.9275000000000011 5.2000000000000011 4.6800000000000006 222.50000000000003 20.395000000000003 0.61900000000000011 2.3617000000000004 0.58200000000000007 0.54550000000000021 7.5500000000000007 8.6600000000000019 6.4726000000000008 386.85500000000008 7.3131000000000013 20.500000000000004 6.1575000000000006 7.1700000000000008 0.48850000000000005\ndecision_type=2 2 2 2 2 2 2 2 2 2 2 2 2 2 2 2 2 2 2 2 2 2 2 2 2 2\nleft_child=-1 3 -3 4 6 7 -2 8 -6 10 -9 -11 13 15 -15 16 17 21 -19 20 -20 22 25 24 -22 -13\nright_child=1 2 -4 -5 5 -7 -8 9 -10 11 -12 12 -14 14 -16 -17 -18 18 19 -21 23 -23 -24 -25 -26 -27\nleaf_value=0.10037015141919256 0.015469302795827384 0.024527505403190538 -0.20682040154468267 0.091024664263906235 0.0009704768192023036 0.11517792060039939 -0.18419987780973318 -0.00018094824044965205 -0.14534300778061154 0.047248583426699048 -0.079502792297862487 -0.0047049861284904175 0.04284716377345224 -0.00952432904616996 0.061326961492055236 -0.035818347241729498 0.029301500742440114 -0.035036670651215206 -0.026783702359534801 0.019827416616317352 -0.0074593462733901113 -0.01054783291183412 0.042938145846128463 -0.014608827198389919 0.023525047439034098 0.01846639735546584\nleaf_weight=9.9999999999999982 10.000000000000002 15.000000000000002 9.9999999999999982 13.999999999999998 10.000000000000002 15.999999999999998 9.9999999999999982 16.000000000000004 9.9999999999999982 10.999999999999998 9.9999999999999982 11.000000000000002 11.999999999999998 14.000000000000002 13.999999999999998 18 15.999999999999998 12.999999999999998 15.999999999999998 15.999999999999998 15.999999999999998 10.999999999999998 9.9999999999999982 17 15.999999999999998 11.999999999999998\nleaf_count=10 10 15 10 14 10 16 10 16 10 11 10 11 12 14 14 18 16 13 16 16 16 11 10 17 16 12\ninternal_value=0 -0.00530498 -0.123658 0.0039703 -0.00344415 0.00707847 -0.153391 -0.00495638 -0.131248 0.00518751 -0.0557988 0.012298 0.00847871 0.0043132 0.0470933 -0.00265101 0.00465106 -0.000986547 -0.0107945 -0.00230302 -0.0117437 0.0199668 0.0330151 0.000322863 0.0146052 0.0134262\ninternal_weight=0 344 25 319 305 285 20 269 20 249 26 223 212 200 28 172 154 138 94 81 65 44 33 49 32 23\ninternal_count=354 344 25 319 305 285 20 269 20 249 26 223 212 200 28 172 154 138 94 81 65 44 33 49 32 23\nshrinkage=0.55\n\n\nTree=32\nnum_leaves=29\nnum_cat=0\nsplit_feature=11 6 6 3 5 6 5 6 3 4 4 8 11 10 11 7 4 0 6 4 8 9 4 6 0 7 5 5\nsplit_gain=0.304003 2.36546 1.56407 0.189952 0.72011 0.199435 0.122276 0.0961354 0.417414 0.351509 0.264701 0.225671 0.133393 0.122433 0.111113 0.094415 0.0842318 0.0762459 0.0467078 0.0520293 0.0431705 0.0210015 0.0403954 0.0183883 0.0146611 0.0139198 0.00748377 0.00583543\nthreshold=12.08 2.0001000000000007 1.4222500000000002 0.71550000000000014 94.750000000000014 1.6634000000000002 98.15000000000002 3.2074500000000001 0.51650000000000007 7.4795000000000007 6.9450000000000012 364.00000000000006 4.7800000000000011 388.29500000000007 4.7800000000000011 6.5000000000000009 5.963000000000001 6.5968400000000011 3.5138500000000006 5.8755000000000015 394.50000000000006 17.950000000000003 6.4280000000000008 4.2040000000000006 0.13995000000000005 3.5000000000000004 42.250000000000007 60.550000000000004\ndecision_type=2 2 2 2 2 2 2 2 2 2 2 2 2 2 2 2 2 2 2 2 2 2 2 2 2 2 2 2\nleft_child=1 -1 -2 5 -5 -4 15 8 -3 10 12 -10 -9 -13 -12 18 -17 -18 19 -7 21 25 26 -20 -25 -14 -23 -27\nright_child=2 7 3 4 -6 6 -8 9 11 -11 14 13 20 -15 -16 16 17 -19 23 -21 -22 22 -24 24 -26 27 -28 -29\nleaf_value=0.27529092058539395 -0.20856208562230072 0.11563542955555023 -0.063835343563308319 -0.050832052528858168 0.15309527432080358 -0.046280887701238185 -0.053923894159379419 -0.07056338237598539 -0.072378443856723609 -0.096519884156684083 0.0946461143903434 -0.01517405658960342 0.028025837452150884 0.068912330809980632 0.019538873018553626 0.065216816337003075 0.038692227331921444 -0.024701730161905289 0.026324099702760579 -0.001192795331007801 -0.037794136134907612 0.0093066736952298213 -0.038128000637516382 0.01433684965362772 -0.013236351504123639 -0.0031147613377834199 -0.0063431962442241224 0.014037581298034639\nleaf_weight=9.9999999999999982 11.999999999999998 10.999999999999998 18 11.000000000000002 9.9999999999999982 15.000000000000002 11.999999999999998 9.9999999999999982 10.999999999999998 11.999999999999998 11.000000000000002 11.000000000000002 9.9999999999999982 9.9999999999999982 12.999999999999998 11.999999999999998 12.000000000000002 10.999999999999998 9.9999999999999982 15.999999999999998 9.9999999999999982 18 9.9999999999999982 10.000000000000002 13.999999999999998 15.000000000000002 19 9.9999999999999982\nleaf_count=10 12 11 18 11 10 15 12 10 11 12 11 11 10 10 13 12 12 11 10 16 10 18 10 10 14 15 19 10\ninternal_value=0 0.0270716 -0.031722 -0.00410753 0.0841385 -0.0183627 -0.00266063 0.000913777 0.0422002 -0.0119508 0.00362438 -0.0155656 -0.0186086 0.0452129 0.0981146 0.00878531 0.0506592 0.0152243 -0.0137622 -0.0418357 -0.00668595 0.000878762 -0.0129316 0.0118343 -0.0031773 0.019424 0.00230955 0.00681123\ninternal_weight=0 191 163 151 21 130 112 181 43 138 126 32 102 21 24 100 35 23 65 31 92 82 47 34 24 35 37 25\ninternal_count=354 191 163 151 21 130 112 181 43 138 126 32 102 21 24 100 35 23 65 31 92 82 47 34 24 35 37 25\nshrinkage=0.55\n\n\nTree=33\nnum_leaves=27\nnum_cat=0\nsplit_feature=11 0 0 5 0 6 4 6 0 9 5 8 4 3 10 10 6 5 5 2 6 11 0 5 5 5\nsplit_gain=0.322615 0.311043 1.49226 1.40571 0.362266 1.01513 0.415393 0.516679 0.338158 0.388194 0.0776827 0.0592817 0.0739438 0.071277 0.025653 0.0242077 0.0868729 0.0650801 0.0520003 0.0433672 0.0278453 0.0261655 0.0219713 0.0133895 0.00785954 0.00505692\nthreshold=29.805000000000003 9.5546700000000016 7.7121250000000012 97.050000000000011 2.3739800000000004 2.0162500000000003 7.6275000000000004 3.3725500000000008 1.3898700000000002 14.750000000000002 87.750000000000014 195.50000000000003 6.7445000000000013 0.43500000000000005 356.14000000000004 392.47500000000008 4.2547000000000006 90.15000000000002 82.950000000000017 3.7650000000000001 2.8823500000000002 6.5850000000000009 0.15092000000000003 66.800000000000011 54.350000000000001 33.400000000000006\ndecision_type=2 2 2 2 2 2 2 2 2 2 2 2 2 2 2 2 2 2 2 2 2 2 2 2 2 2\nleft_child=1 2 4 -3 6 -6 8 -8 9 -1 -7 -11 14 -14 -13 16 18 19 -16 -17 -21 -18 -23 24 25 -22\nright_child=-2 3 -4 -5 5 10 7 -9 -10 11 -12 12 13 -15 15 17 21 -19 -20 20 23 22 -24 -25 -26 -27\nleaf_value=-0.10454552716886005 0.097382851322181524 0.046597179329316868 0.1928070245543495 -0.17863369688915556 -0.17327934888058477 0.035076393956939372 0.16726226426661009 -0.0095400336012244243 0.090465424396097671 -0.042194251297041775 -0.023011633741239518 0.021726448733825239 -0.0078599704357867062 0.044992321903670307 -0.016974007335790828 -0.041777463825419553 